{"learner":{"attributes":{},"feature_names":[],"feature_types":[],"gradient_booster":{"model":{"gbtree_model_param":{"num_parallel_tree":"1","num_trees":"55"},"iteration_indptr":[0,1,2,3,4,5,6,7,8,9,10,11,12,13,14,15,16,17,18,19,20,21,22,23,24,25,26,27,28,29,30,31,32,33,34,35,36,37,38,39,40,41,42,43,44,45,46,47,48,49,50,51,52,53,54,55],"tree_info":[0,0,0,0,0,0,0,0,0,0,0,0,0,0,0,0,0,0,0,0,0,0,0,0,0,0,0,0,0,0,0,0,0,0,0,0,0,0,0,0,0,0,0,0,0,0,0,0,0,0,0,0,0,0,0],"trees":[{"base_weights":[-5.9282467E-8,-8.8174963E-1,8.796469E-1,-9.2945385E-1,4.2398742E-1,-5.529246E-1,9.259271E-1,-9.5916224E-1,-4.701833E-1,6.4880687E-1,-4.0431947E-1,4.8999897E-1,-6.090718E-1,9.733583E-1,5.5998373E-1,-6.9306E-1,-9.750914E-1,-7.662418E-1,-1.11264385E-1,7.0337224E-1,-2.3651393E-1,-7.441066E-1,1.5809101E-1,-3.9255407E-2,7.401788E-2,-7.897151E-1,-2.2060543E-1,9.736946E-1,-2.6314616E-2,3.2554525E-1,6.8648005E-1,-8.380467E-1,-6.070942E-2,-9.815747E-2,-7.5305074E-1,-9.625429E-2,-3.1654114E-1,-9.0117715E-2,2.951019E-2,8.5871786E-1,4.5970687E-1,3.38748E-2,-6.701285E-2,-9.07482E-2,3.553233E-2,6.262632E-1,-6.9788866E-2,-9.45275E-2,-3.6656895E-1,8.565491E-2,-8.7477915E-2,-2.6064197E-2,9.740268E-2,4.0130123E-1,-6.969538E-1,6.9896954E-1,-5.656795E-2,-9.4093926E-2,-2.2885574E-2,-7.490758E-2,3.8345862E-2,-7.84211E-2,3.7582587E-2,1.1589529E-2,-9.083497E-2,1.9423878E-2,-7.0722565E-2,8.784055E-2,-2.8712763E-2,6.0159232E-2,-4.7344323E-2,-3.5816226E-2,8.0226496E-2,-5.6901075E-2,2.7769944E-2,-3.7195064E-2,4.7683265E-2,-7.5552166E-2,4.5008346E-2,1.962395E-2,-8.417607E-2,7.0954956E-2,-5.2117225E-2],"categories":[],"categories_nodes":[],"categories_segments":[],"categories_sizes":[],"default_left":[0,1,1,1,0,0,0,0,1,0,0,0,1,0,0,0,1,0,0,0,0,1,0,0,0,0,0,0,0,0,0,1,0,0,1,0,0,0,0,0,0,0,0,0,0,0,0,0,0,0,0,0,0,0,0,0,0,0,0,0,0,0,0,0,0,0,0,0,0,0,0,0,0,0,0,0,0,0,0,0,0,0,0],"id":0,"left_children":[1,3,5,7,9,11,13,15,17,19,21,23,25,27,29,31,33,35,37,39,41,43,45,-1,-1,47,49,51,-1,53,55,57,59,-1,61,-1,63,-1,65,67,69,-1,-1,-1,-1,71,-1,-1,73,75,-1,-1,-1,77,79,81,-1,-1,-1,-1,-1,-1,-1,-1,-1,-1,-1,-1,-1,-1,-1,-1,-1,-1,-1,-1,-1,-1,-1,-1,-1,-1,-1],"loss_changes":[3.7883047E3,1.5232788E2,1.6261462E2,3.1660767E1,1.6399975E1,4.8156548E0,4.0571655E1,8.690063E0,1.5317413E1,3.477541E0,3.7706895E0,1.2830509E0,4.9938564E0,1.1279297E0,7.9069366E0,1.1707752E1,2.2584229E0,6.6922607E0,7.442474E0,2.0586662E0,1.4062816E0,2.4943576E0,3.652746E0,0E0,0E0,2.936987E0,5.0363555E0,1.112793E0,0E0,7.8697844E0,3.1661987E0,6.3194427E0,7.9308925E0,0E0,2.5238686E0,0E0,6.650486E0,0E0,7.1242294E0,1.1191349E0,3.9108167E0,0E0,0E0,0E0,0E0,1.2773886E0,0E0,0E0,2.1199179E0,3.3597498E0,0E0,0E0,0E0,5.524065E0,1.086658E0,2.640152E0,0E0,0E0,0E0,0E0,0E0,0E0,0E0,0E0,0E0,0E0,0E0,0E0,0E0,0E0,0E0,0E0,0E0,0E0,0E0,0E0,0E0,0E0,0E0,0E0,0E0,0E0,0E0],"parents":[2147483647,0,0,1,1,2,2,3,3,4,4,5,5,6,6,7,7,8,8,9,9,10,10,11,11,12,12,13,13,14,14,15,15,16,16,17,17,18,18,19,19,20,20,21,21,22,22,25,25,26,26,27,27,29,29,30,30,31,31,32,32,34,34,36,36,38,38,39,39,40,40,45,45,48,48,49,49,53,53,54,54,55,55],"right_children":[2,4,6,8,10,12,14,16,18,20,22,24,26,28,30,32,34,36,38,40,42,44,46,-1,-1,48,50,52,-1,54,56,58,60,-1,62,-1,64,-1,66,68,70,-1,-1,-1,-1,72,-1,-1,74,76,-1,-1,-1,78,80,82,-1,-1,-1,-1,-1,-1,-1,-1,-1,-1,-1,-1,-1,-1,-1,-1,-1,-1,-1,-1,-1,-1,-1,-1,-1,-1,-1],"split_conditions":[1.6432757E0,9.998831E-1,9.99723E-1,5.193262E-1,1.5E1,-8.095894E0,4E0,2.5E1,9.9970835E-1,9.2E1,-1.0425453E0,3.4405391E0,9.9965113E-1,8.9E1,9.998408E-1,3.3723907E1,9.998153E-1,5.4E1,-1.4019475E0,4E0,-8.973992E-1,6.9773644E-1,-9.497228E0,-3.9255407E-2,7.401788E-2,3.666404E1,6.675014E-1,4.5745644E-1,-2.6314616E-2,3.9E1,5.4E1,9.7629654E-1,8.124854E-1,-9.815747E-2,9.9384636E-1,-9.625429E-2,1.8963907E1,-9.0117715E-2,2.1E1,3.1E1,1.7768322E1,3.38748E-2,-6.701285E-2,-9.07482E-2,3.553233E-2,-9.627229E0,-6.9788866E-2,-9.45275E-2,1.1E1,2.1946964E0,-8.7477915E-2,-2.6064197E-2,9.740268E-2,-1.4664848E0,-6.2291975E0,9.99967E-1,-5.656795E-2,-9.4093926E-2,-2.2885574E-2,-7.490758E-2,3.8345862E-2,-7.84211E-2,3.7582587E-2,1.1589529E-2,-9.083497E-2,1.9423878E-2,-7.0722565E-2,8.784055E-2,-2.8712763E-2,6.0159232E-2,-4.7344323E-2,-3.5816226E-2,8.0226496E-2,-5.6901075E-2,2.7769944E-2,-3.7195064E-2,4.7683265E-2,-7.5552166E-2,4.5008346E-2,1.962395E-2,-8.417607E-2,7.0954956E-2,-5.2117225E-2],"split_indices":[13,12,12,14,3,7,3,6,12,6,9,13,12,0,12,1,12,0,4,3,13,14,7,0,0,1,14,14,0,0,3,10,11,0,10,0,1,0,0,0,1,0,0,0,0,7,0,0,6,13,0,0,0,4,7,12,0,0,0,0,0,0,0,0,0,0,0,0,0,0,0,0,0,0,0,0,0,0,0,0,0,0,0],"split_type":[0,0,0,0,0,0,0,0,0,0,0,0,0,0,0,0,0,0,0,0,0,0,0,0,0,0,0,0,0,0,0,0,0,0,0,0,0,0,0,0,0,0,0,0,0,0,0,0,0,0,0,0,0,0,0,0,0,0,0,0,0,0,0,0,0,0,0,0,0,0,0,0,0,0,0,0,0,0,0,0,0,0,0],"sum_hessian":[4.882175E3,2.438172E3,2.4440024E3,2.352513E3,8.565929E1,7.614171E1,2.3678608E3,2.2085615E3,1.4395131E2,6.754334E1,1.811594E1,3.4950378E0,7.264667E1,2.0946997E3,2.731611E2,1.27253944E2,2.0813076E3,7.826152E1,6.568978E1,6.381568E1,3.727662E0,1.1091693E1,7.0242476E0,6.46237E-1,2.848801E0,4.888256E1,2.3764109E1,2.0943425E3,3.5712123E-1,9.698679E1,1.7617432E2,1.0325429E2,2.3999655E1,2.0189365E3,6.2371037E1,5.3686253E1,2.457527E1,9.119119E0,5.6570663E1,3.7429092E1,2.638659E1,1.696179E0,2.0314832E0,9.808706E0,1.2829865E0,4.71421E0,2.3100379E0,3.484038E1,1.404218E1,1.677822E1,6.9858885E0,3.5252467E-1,2.09399E3,9.086241E1,6.124379E0,1.7487187E2,1.302447E0,8.786867E1,1.538562E1,9.143185E0,1.4856469E1,6.099278E1,1.378257E0,1.4664234E1,9.9110365E0,4.6835052E1,9.735614E0,3.7026318E1,4.027756E-1,2.3212448E1,3.1741421E0,5.5802613E-1,4.1561837E0,1.0773686E1,3.2684934E0,7.7552104E0,9.023009E0,3.0903416E0,8.777207E1,8.0483603E-1,5.319543E0,1.7378343E2,1.0884336E0],"tree_param":{"num_deleted":"0","num_feature":"15","num_nodes":"83","size_leaf_vector":"1"}},{"base_weights":[-7.002054E-8,-7.351128E-1,7.2468084E-1,-2.8027296E-1,-8.569326E-1,1.5611844E-1,8.132592E-1,-6.410973E-1,-7.4737184E-2,-8.6705834E-1,-3.8147897E-1,-9.123475E-2,2.4495494E-1,8.715556E-1,6.0279936E-1,-7.423565E-1,-2.687976E-1,-2.9636675E-2,-8.4947065E-2,-8.802881E-1,-4.6222314E-1,-1.14326745E-1,-7.2754323E-1,8.916661E-2,6.2735504E-1,-6.407642E-2,8.727393E-1,2.445154E-1,6.7124975E-1,-7.757325E-1,5.867859E-1,-8.942317E-2,2.528842E-2,1.2458245E-1,-2.5862834E-1,-8.962189E-1,-7.402954E-1,-6.9849676E-1,3.5370275E-1,-8.5814774E-2,2.2912335E-1,-8.926038E-2,2.1178727E-1,6.1040723E-1,2.9331157E-2,-7.363597E-2,6.60294E-1,8.737844E-1,-5.964259E-2,4.8981974E-1,-1.8248586E-1,5.794975E-1,7.390588E-1,-8.081704E-2,1.4755887E-2,7.748729E-2,-3.6949802E-2,3.7252493E-2,-4.7948934E-2,4.1326445E-2,1.0291545E-3,-6.9449715E-2,7.129915E-4,-8.3217844E-2,-9.078715E-2,-8.263539E-2,-1.139216E-2,-9.207939E-2,-2.6215795E-2,5.9713762E-2,-7.333994E-2,4.3895323E-2,-7.528754E-2,-5.8362376E-2,7.473229E-2,-4.7533493E-3,8.1664994E-2,-7.797633E-2,9.599401E-3,-5.8335286E-2,6.779017E-2,8.037446E-2,8.968052E-2,5.8612674E-2,-8.08072E-2,-9.2170455E-2,1.999415E-2,5.957078E-2,-3.7569553E-2,7.5589925E-2,-7.6970726E-2],"categories":[],"categories_nodes":[],"categories_segments":[],"categories_sizes":[],"default_left":[1,0,0,1,1,1,0,0,0,1,0,0,0,0,1,0,1,0,0,0,0,0,0,0,0,0,0,0,0,0,0,0,0,0,0,0,0,1,0,0,0,0,0,0,0,0,0,1,0,0,0,0,0,0,0,0,0,0,0,0,0,0,0,0,0,0,0,0,0,0,0,0,0,0,0,0,0,0,0,0,0,0,0,0,0,0,0,0,0,0,0],"id":1,"left_children":[1,3,5,7,9,11,13,15,17,19,21,-1,23,25,27,29,31,33,-1,35,37,39,41,43,45,-1,47,49,51,53,55,-1,57,59,61,63,65,67,69,-1,71,-1,73,75,77,-1,79,81,-1,83,85,87,89,-1,-1,-1,-1,-1,-1,-1,-1,-1,-1,-1,-1,-1,-1,-1,-1,-1,-1,-1,-1,-1,-1,-1,-1,-1,-1,-1,-1,-1,-1,-1,-1,-1,-1,-1,-1,-1,-1],"loss_changes":[4.0198584E3,2.073186E2,1.9124512E2,5.8749973E1,1.3891602E1,4.8958588E1,3.9808594E1,1.064225E1,1.7663185E1,1.5081055E1,5.7772055E0,0E0,2.8230492E1,5.1638184E0,1.7403687E1,1.0459961E1,1.1621668E1,1.6963034E1,0E0,5.5793457E0,1.8294556E1,9.638438E0,4.441842E0,1.054063E1,6.6526604E0,0E0,4.4680176E0,1.2289739E1,3.310028E0,6.7211914E0,1.3823802E0,0E0,7.867255E0,9.470221E0,2.2391863E1,1.1164551E0,1.5631897E1,6.832657E0,6.176776E0,0E0,5.7030425E0,0E0,2.526718E0,4.762368E0,1.6510803E1,0E0,3.342186E0,3.4216309E0,0E0,9.754475E0,1.2404548E1,4.2493057E0,9.268341E0,0E0,0E0,0E0,0E0,0E0,0E0,0E0,0E0,0E0,0E0,0E0,0E0,0E0,0E0,0E0,0E0,0E0,0E0,0E0,0E0,0E0,0E0,0E0,0E0,0E0,0E0,0E0,0E0,0E0,0E0,0E0,0E0,0E0,0E0,0E0,0E0,0E0,0E0],"parents":[2147483647,0,0,1,1,2,2,3,3,4,4,5,5,6,6,7,7,8,8,9,9,10,10,12,12,13,13,14,14,15,15,16,16,17,17,19,19,20,20,21,21,22,22,23,23,24,24,26,26,27,27,28,28,29,29,30,30,32,32,33,33,34,34,35,35,36,36,37,37,38,38,40,40,42,42,43,43,44,44,46,46,47,47,49,49,50,50,51,51,52,52],"right_children":[2,4,6,8,10,12,14,16,18,20,22,-1,24,26,28,30,32,34,-1,36,38,40,42,44,46,-1,48,50,52,54,56,-1,58,60,62,64,66,68,70,-1,72,-1,74,76,78,-1,80,82,-1,84,86,88,90,-1,-1,-1,-1,-1,-1,-1,-1,-1,-1,-1,-1,-1,-1,-1,-1,-1,-1,-1,-1,-1,-1,-1,-1,-1,-1,-1,-1,-1,-1,-1,-1,-1,-1,-1,-1,-1,-1],"split_conditions":[9.998408E-1,2.5E1,9.999159E-1,9.996434E-1,9.998153E-1,2.8378364E-1,2E0,3.666404E1,4.6E1,5.2476174E-1,3.6E1,-9.123475E-2,9.1086817E-1,-1.1867423E0,9.4568557E-1,3.4405391E0,9.994766E-1,9.8509496E-1,-8.4947065E-2,-1.3601656E0,5.6E1,2E1,-4.581131E0,-8.004096E0,2.4202418E0,-6.407642E-2,4.9E1,-1.1179831E0,9.1086817E-1,-1.1985794E0,-8.095894E0,-8.942317E-2,-2.860276E0,-4.009941E0,-2.512704E0,5.3E1,6.5E1,9.7596055E-1,1.6674988E1,-8.5814774E-2,-7.0231247E0,-8.926038E-2,7.7E1,-1.4027731E0,4.5745644E-1,-7.363597E-2,-3.0634632E0,9.958996E-1,-5.964259E-2,5.1E1,-1.3365308E0,7.030709E1,3.3E1,-8.081704E-2,1.4755887E-2,7.748729E-2,-3.6949802E-2,3.7252493E-2,-4.7948934E-2,4.1326445E-2,1.0291545E-3,-6.9449715E-2,7.129915E-4,-8.3217844E-2,-9.078715E-2,-8.263539E-2,-1.139216E-2,-9.207939E-2,-2.6215795E-2,5.9713762E-2,-7.333994E-2,4.3895323E-2,-7.528754E-2,-5.8362376E-2,7.473229E-2,-4.7533493E-3,8.1664994E-2,-7.797633E-2,9.599401E-3,-5.8335286E-2,6.779017E-2,8.037446E-2,8.968052E-2,5.8612674E-2,-8.08072E-2,-9.2170455E-2,1.999415E-2,5.957078E-2,-3.7569553E-2,7.5589925E-2,-7.6970726E-2],"split_indices":[12,6,12,12,12,14,3,1,0,14,3,0,14,9,10,13,12,10,0,4,6,3,7,7,13,0,6,9,14,4,7,0,7,7,7,6,0,10,1,0,7,0,6,4,14,0,7,10,0,6,4,1,0,0,0,0,0,0,0,0,0,0,0,0,0,0,0,0,0,0,0,0,0,0,0,0,0,0,0,0,0,0,0,0,0,0,0,0,0,0,0],"split_type":[0,0,0,0,0,0,0,0,0,0,0,0,0,0,0,0,0,0,0,0,0,0,0,0,0,0,0,0,0,0,0,0,0,0,0,0,0,0,0,0,0,0,0,0,0,0,0,0,0,0,0,0,0,0,0,0,0,0,0,0,0,0,0,0,0,0,0,0,0,0,0,0,0,0,0,0,0,0,0,0,0,0,0,0,0,0,0,0,0,0,0],"sum_hessian":[7.543882E3,3.7449792E3,3.7989028E3,7.9182715E2,2.953152E3,5.1244E2,3.2864626E3,2.8659015E2,5.05237E2,2.8907637E3,6.2388493E1,3.862419E1,4.7381583E2,2.5711301E3,7.153327E2,2.245283E2,6.2061844E1,4.7842416E2,2.6812841E1,2.7981475E3,9.261621E1,3.595927E1,2.642922E1,3.375375E2,1.362783E2,1.5883329E0,2.5695417E3,1.1547641E2,5.9985626E2,2.1943446E2,5.0938396E0,1.9196291E1,4.2865555E1,2.8615988E2,1.9226428E2,2.50741E3,2.9073752E2,7.193065E1,2.068556E1,1.0885526E1,2.5073746E1,2.2521461E1,3.907759E0,3.3809925E1,3.0372757E2,2.710368E0,1.3356795E2,2.56812E3,1.4216199E0,7.324906E1,4.222735E1,2.5897888E2,3.408774E2,2.1210721E2,7.3272524E0,4.4151487E0,6.786909E-1,2.5551018E1,1.7314537E1,8.041856E1,2.0574132E2,7.2213684E1,1.2005059E2,3.9715265E2,2.110257E3,2.5533713E2,3.5400402E1,4.6917686E1,2.5012962E1,1.7269178E1,3.4163816E0,2.1114977E1,3.9587696E0,1.5362418E0,2.3715172E0,8.252599E0,2.5557327E1,2.2305548E1,2.8142203E2,1.4161078E0,1.3215184E2,6.4416986E2,1.9239502E3,6.869976E1,4.5493045E0,1.3916704E1,2.8310644E1,2.5502724E2,3.9516342E0,3.3760812E2,3.2692997E0],"tree_param":{"num_deleted":"0","num_feature":"15","num_nodes":"91","size_leaf_vector":"1"}},{"base_weights":[2.236572E-8,-7.0533055E-1,6.864662E-1,-7.745797E-1,-7.684626E-2,7.800061E-1,1.7263201E-1,-7.831066E-1,4.5257956E-1,-4.1045296E-1,1.7556722E-1,8.2362324E-2,6.661215E-1,3.059495E-1,-5.640222E-1,-8.201092E-1,-6.1234915E-1,6.98248E-1,-2.3801763E-1,-2.766002E-1,-8.501712E-2,4.5667714E-1,-5.5821236E-2,4.9990144E-1,6.966889E-1,9.6163474E-2,5.4032916E-1,-8.722404E-2,1.9530593E-1,-8.4031925E-2,-6.170313E-1,-6.462829E-1,8.493221E-2,-3.9345764E-2,7.743138E-2,4.0845077E-2,-6.979131E-2,-8.209704E-2,-1.6069049E-1,5.1217604E-1,-6.9290355E-2,-3.7359402E-1,1.6558604E-1,5.2211934E-1,-6.290918E-2,6.5228194E-1,7.6956946E-1,-1.2903504E-2,4.7006866E-1,4.3048456E-1,7.039987E-1,-8.146015E-2,7.131576E-1,-4.2795178E-2,-8.5005194E-2,-7.290412E-2,-4.2819764E-2,2.4194343E-2,-7.077056E-2,5.423158E-3,-4.8783302E-2,6.044131E-2,1.4608829E-2,1.0575492E-2,-7.775795E-2,-5.2134167E-2,3.5425797E-2,5.8073502E-2,9.754567E-3,4.690015E-2,6.9519825E-2,-4.9008463E-2,7.759585E-2,-6.701209E-2,1.5738659E-2,6.0635872E-2,-5.9955835E-2,5.199427E-3,5.3231593E-2,4.060989E-2,7.74535E-2,3.3509016E-2,-8.198997E-2,-2.9027734E-2,7.9828344E-2],"categories":[],"categories_nodes":[],"categories_segments":[],"categories_sizes":[],"default_left":[1,0,0,1,1,0,0,1,0,0,0,0,0,0,0,0,1,0,0,0,0,0,1,0,0,0,0,0,0,0,0,1,0,0,0,0,0,0,0,0,0,0,0,0,0,0,0,0,0,0,0,0,0,0,0,0,0,0,0,0,0,0,0,0,0,0,0,0,0,0,0,0,0,0,0,0,0,0,0,0,0,0,0,0,0],"id":2,"left_children":[1,3,5,7,9,11,13,15,17,19,21,-1,23,25,27,29,31,33,35,37,-1,39,41,43,45,47,49,-1,51,-1,53,55,57,-1,-1,-1,-1,-1,59,61,-1,63,65,67,-1,69,71,73,75,77,79,81,83,-1,-1,-1,-1,-1,-1,-1,-1,-1,-1,-1,-1,-1,-1,-1,-1,-1,-1,-1,-1,-1,-1,-1,-1,-1,-1,-1,-1,-1,-1,-1,-1],"loss_changes":[3.4875994E3,1.5456091E2,1.753147E2,3.3838623E1,2.9856915E1,1.4789917E1,5.550939E1,1.9579834E1,4.0200577E0,8.749529E0,1.3168544E1,0E0,4.0230713E0,2.34394E1,2.0461119E1,1.019043E1,1.3541977E1,1.7171392E0,2.2788503E0,7.3457937E0,0E0,6.1822147E0,7.9223285E0,3.7694855E0,1.8417664E0,1.0336819E1,3.7499084E0,0E0,3.7627676E0,0E0,1.02074585E1,9.500137E0,3.5733054E0,0E0,0E0,0E0,0E0,0E0,6.983595E0,2.8732376E0,0E0,9.025843E0,8.808262E0,3.3050346E0,0E0,3.2650452E0,2.5421295E0,2.2163406E1,8.707035E0,5.270897E0,1.5548172E0,5.732372E0,1.0094991E0,0E0,0E0,0E0,0E0,0E0,0E0,0E0,0E0,0E0,0E0,0E0,0E0,0E0,0E0,0E0,0E0,0E0,0E0,0E0,0E0,0E0,0E0,0E0,0E0,0E0,0E0,0E0,0E0,0E0,0E0,0E0,0E0],"parents":[2147483647,0,0,1,1,2,2,3,3,4,4,5,5,6,6,7,7,8,8,9,9,10,10,12,12,13,13,14,14,15,15,16,16,17,17,18,18,19,19,21,21,22,22,23,23,24,24,25,25,26,26,28,28,30,30,31,31,32,32,38,38,39,39,41,41,42,42,43,43,45,45,46,46,47,47,48,48,49,49,50,50,51,51,52,52],"right_children":[2,4,6,8,10,12,14,16,18,20,22,-1,24,26,28,30,32,34,36,38,-1,40,42,44,46,48,50,-1,52,-1,54,56,58,-1,-1,-1,-1,-1,60,62,-1,64,66,68,-1,70,72,74,76,78,80,82,84,-1,-1,-1,-1,-1,-1,-1,-1,-1,-1,-1,-1,-1,-1,-1,-1,-1,-1,-1,-1,-1,-1,-1,-1,-1,-1,-1,-1,-1,-1,-1,-1],"split_conditions":[9.9982476E-1,1.5956137E0,4E0,7.351522E-1,9.99723E-1,2E0,3.2E1,3.837517E-1,1.8963907E1,2.9E1,9.7106326E-1,8.2362324E-2,7.4953014E-1,2.0917554E0,1.5956137E0,-1.3613424E0,9.99808E-1,-3.3682472E-1,-3.3682472E-1,-1.0369517E0,-8.501712E-2,3.9E1,9.7939926E-1,5.1E1,9.975444E-1,3.19447E1,8.996841E-1,-8.722404E-2,1.5E1,-8.4031925E-2,-6.910129E0,9.7340953E-1,7.776567E-1,-3.9345764E-2,7.743138E-2,4.0845077E-2,-6.979131E-2,-8.209704E-2,-1.8125864E0,8E0,-6.9290355E-2,-1.1545739E0,9.997732E-1,6.966676E-1,-6.290918E-2,2.3068101E0,9.998831E-1,2.2E1,9E0,2.4202418E0,9.9988735E-1,8.88858E-1,-1.0659727E0,-4.2795178E-2,-8.5005194E-2,-7.290412E-2,-4.2819764E-2,2.4194343E-2,-7.077056E-2,5.423158E-3,-4.8783302E-2,6.044131E-2,1.4608829E-2,1.0575492E-2,-7.775795E-2,-5.2134167E-2,3.5425797E-2,5.8073502E-2,9.754567E-3,4.690015E-2,6.9519825E-2,-4.9008463E-2,7.759585E-2,-6.701209E-2,1.5738659E-2,6.0635872E-2,-5.9955835E-2,5.199427E-3,5.3231593E-2,4.060989E-2,7.74535E-2,3.3509016E-2,-8.198997E-2,-2.9027734E-2,7.9828344E-2],"split_indices":[12,13,3,14,12,6,3,14,1,3,10,0,9,13,13,4,12,7,7,11,0,0,10,6,10,1,9,0,6,0,7,10,9,0,0,0,0,0,7,6,0,9,12,9,0,13,12,6,3,13,12,11,9,0,0,0,0,0,0,0,0,0,0,0,0,0,0,0,0,0,0,0,0,0,0,0,0,0,0,0,0,0,0,0,0],"split_type":[0,0,0,0,0,0,0,0,0,0,0,0,0,0,0,0,0,0,0,0,0,0,0,0,0,0,0,0,0,0,0,0,0,0,0,0,0,0,0,0,0,0,0,0,0,0,0,0,0,0,0,0,0,0,0,0,0,0,0,0,0,0,0,0,0,0,0,0,0,0,0,0,0,0,0,0,0,0,0,0,0,0,0,0,0],"sum_hessian":[7.201022E3,3.5516963E3,3.649326E3,3.1989856E3,3.527106E2,3.0868655E3,5.6246045E2,3.1772703E3,2.171548E1,1.5165155E2,2.0105905E2,2.2275112E3,8.593543E2,4.7676212E2,8.5698326E1,2.6082654E3,5.6900476E2,1.6009342E1,5.706137E0,1.1750991E2,3.4141647E1,9.0336784E1,1.1072227E2,1.3618092E2,7.231734E2,2.5232448E2,2.2443764E2,6.0850044E1,2.4848286E1,2.3693342E3,2.3893127E2,5.426685E2,2.6336262E1,7.710163E-1,1.5238327E1,2.4184372E0,3.2877E0,1.9560617E1,9.7949295E1,8.670534E1,3.6314502E0,4.5184402E1,6.5537865E1,1.3407985E2,2.101073E0,4.555511E2,2.676223E2,1.9609088E2,5.6233604E1,1.3647469E2,8.7962944E1,1.6742788E1,8.105496E0,1.3346805E2,1.0546322E2,3.9168884E2,1.5097968E2,2.2561821E1,3.7744412E0,5.9617046E1,3.8332245E1,6.8736046E1,1.796929E1,2.100232E1,2.4182081E1,1.3741995E1,5.1795868E1,1.1749145E2,1.6588406E1,8.869484E1,3.6685623E2,9.684898E-1,2.6665384E2,3.974889E1,1.5634198E2,5.026237E1,5.971234E0,2.9253786E1,1.072209E2,1.8133987E1,6.982896E1,1.1053678E1,5.6891108E0,4.4539174E-1,7.6601048E0],"tree_param":{"num_deleted":"0","num_feature":"15","num_nodes":"85","size_leaf_vector":"1"}},{"base_weights":[1.3278311E-8,-6.44953E-1,6.6108316E-1,-2.0039332E-1,-7.5195193E-1,7.0726866E-1,-1.3281211E-2,-4.7887266E-1,1.3790725E-1,-7.6330507E-1,-4.0767542E-1,7.667202E-1,5.4045796E-1,-5.03179E-1,2.7133447E-1,-6.320355E-1,-2.3345315E-1,-2.570037E-2,4.5720726E-1,-7.753025E-1,-4.111313E-1,-6.1828285E-1,2.1053684E-1,5.1897866E-1,7.725446E-1,4.4326186E-1,6.474701E-1,-7.260195E-1,3.2389176E-1,-8.213236E-2,3.4586665E-1,-6.600231E-1,4.3193105E-1,2.2122825E-2,-4.6152422E-1,1.3279444E-1,-3.0760434E-1,-2.2382665E-1,5.438336E-1,-7.8940265E-2,-6.5116024E-1,-2.886253E-2,-6.1663073E-1,-1.4667004E-1,-7.555967E-2,3.9811373E-1,-6.638982E-2,-5.859937E-2,5.568184E-1,-4.8717663E-2,7.732666E-1,4.5810392E-1,-2.1585292E-1,6.526291E-1,-5.6449648E-2,5.0798714E-1,-8.3872065E-2,5.317123E-1,-6.250047E-2,3.8656968E-1,-6.994921E-2,-8.063072E-2,-5.1490862E-2,6.979664E-2,-4.587056E-2,-5.8407724E-2,2.2456132E-2,4.683553E-2,-6.1393388E-2,2.1224143E-2,-6.0683873E-2,-1.294974E-3,-7.710545E-2,-7.376964E-2,1.4715977E-2,-5.0302394E-2,5.6440897E-2,-7.356794E-2,-7.757274E-3,-7.2269365E-2,1.7828425E-2,1.8025728E-2,-7.065003E-2,-7.1684234E-2,2.0294903E-2,5.9968706E-2,-6.759015E-2,5.9439924E-2,-5.8588445E-2,-3.717622E-2,7.737016E-2,-2.0038294E-2,4.6935197E-2,5.4297067E-2,-7.508162E-2,-5.062191E-2,6.568233E-2,6.980009E-2,-3.7330464E-2,6.645932E-2,-5.1212013E-2,-7.22807E-2,4.1843046E-2],"categories":[],"categories_nodes":[],"categories_segments":[],"categories_sizes":[],"default_left":[1,0,0,1,1,0,0,0,0,1,0,0,0,1,0,0,0,0,0,0,0,0,0,0,0,0,0,0,0,0,0,1,0,0,0,0,0,0,0,0,0,0,0,0,0,0,0,0,0,0,0,0,0,0,0,0,0,0,0,0,0,0,0,0,0,0,0,0,0,0,0,0,0,0,0,0,0,0,0,0,0,0,0,0,0,0,0,0,0,0,0,0,0,0,0,0,0,0,0,0,0,0,0],"id":3,"left_children":[1,3,5,7,9,11,13,15,17,19,21,23,25,27,29,31,33,35,37,39,41,43,45,47,49,51,53,55,57,-1,59,61,63,65,67,69,71,73,75,-1,77,79,81,83,-1,85,-1,-1,87,-1,89,91,93,95,-1,97,-1,99,-1,101,-1,-1,-1,-1,-1,-1,-1,-1,-1,-1,-1,-1,-1,-1,-1,-1,-1,-1,-1,-1,-1,-1,-1,-1,-1,-1,-1,-1,-1,-1,-1,-1,-1,-1,-1,-1,-1,-1,-1,-1,-1,-1,-1],"loss_changes":[3.0047822E3,1.695326E2,1.0840259E2,6.538932E1,1.0925537E1,3.1887085E1,3.1376797E1,1.4156601E1,1.6406816E1,1.1435425E1,1.2358899E1,3.0604248E0,8.649826E0,1.5474308E1,1.1878285E1,7.244896E0,8.626291E0,9.354903E0,6.39777E0,4.192871E0,7.3490286E0,4.442404E0,4.3012943E0,2.7576475E0,2.5065918E0,4.534607E0,2.9118347E0,9.52755E0,3.9294596E0,0E0,5.9711914E0,4.4275436E0,1.8827765E0,8.802286E0,1.1364086E1,8.0108385E0,1.0276091E1,2.532158E0,2.3230305E0,0E0,1.35166855E1,4.991976E0,4.491749E0,3.553444E0,0E0,4.9279137E0,0E0,0E0,2.7847538E0,0E0,1.4536133E0,3.380867E0,4.7371545E0,2.3035126E0,0E0,1.2819784E0,0E0,2.4908543E0,0E0,4.883362E0,0E0,0E0,0E0,0E0,0E0,0E0,0E0,0E0,0E0,0E0,0E0,0E0,0E0,0E0,0E0,0E0,0E0,0E0,0E0,0E0,0E0,0E0,0E0,0E0,0E0,0E0,0E0,0E0,0E0,0E0,0E0,0E0,0E0,0E0,0E0,0E0,0E0,0E0,0E0,0E0,0E0,0E0,0E0],"parents":[2147483647,0,0,1,1,2,2,3,3,4,4,5,5,6,6,7,7,8,8,9,9,10,10,11,11,12,12,13,13,14,14,15,15,16,16,17,17,18,18,19,19,20,20,21,21,22,22,23,23,24,24,25,25,26,26,27,27,28,28,30,30,31,31,32,32,33,33,34,34,35,35,36,36,37,37,38,38,40,40,41,41,42,42,43,43,45,45,48,48,50,50,51,51,52,52,53,53,55,55,57,57,59,59],"right_children":[2,4,6,8,10,12,14,16,18,20,22,24,26,28,30,32,34,36,38,40,42,44,46,48,50,52,54,56,58,-1,60,62,64,66,68,70,72,74,76,-1,78,80,82,84,-1,86,-1,-1,88,-1,90,92,94,96,-1,98,-1,100,-1,102,-1,-1,-1,-1,-1,-1,-1,-1,-1,-1,-1,-1,-1,-1,-1,-1,-1,-1,-1,-1,-1,-1,-1,-1,-1,-1,-1,-1,-1,-1,-1,-1,-1,-1,-1,-1,-1,-1,-1,-1,-1,-1,-1],"split_conditions":[9.998408E-1,2.5E1,1E1,9.99723E-1,5.2476174E-1,2E0,7.380934E-1,-1.3613424E0,2.5730586E0,9.997987E-1,5.6E1,6.631742E-1,9.1086817E-1,9.8128957E-1,8.12285E-1,3.4405391E0,1.1E1,9.8634285E-1,9.99767E-1,-1.3601656E0,-1.1624453E0,-4.448512E0,1.6674988E1,-1.333313E0,5.193262E-1,7.8E1,9.538627E-1,7.6191765E-1,2.7E1,-8.213236E-2,5.6E1,9.542666E-1,-8.095894E0,6E0,-1.3578429E0,4.6E1,-1.1110767E0,-1.2078001E0,-1.4385625E0,-7.8940265E-2,6.5E1,8.06268E-1,2.9923143E-2,3.2E1,-7.555967E-2,7.549951E-1,-6.638982E-2,-5.859937E-2,4.2178884E0,-4.8717663E-2,9.5355684E-1,9.56649E-1,-8.973992E-1,2.3068101E0,-5.6449648E-2,1.3E1,-8.3872065E-2,1.9439543E1,-6.250047E-2,1.1E1,-6.994921E-2,-8.063072E-2,-5.1490862E-2,6.979664E-2,-4.587056E-2,-5.8407724E-2,2.2456132E-2,4.683553E-2,-6.1393388E-2,2.1224143E-2,-6.0683873E-2,-1.294974E-3,-7.710545E-2,-7.376964E-2,1.4715977E-2,-5.0302394E-2,5.6440897E-2,-7.356794E-2,-7.757274E-3,-7.2269365E-2,1.7828425E-2,1.8025728E-2,-7.065003E-2,-7.1684234E-2,2.0294903E-2,5.9968706E-2,-6.759015E-2,5.9439924E-2,-5.8588445E-2,-3.717622E-2,7.737016E-2,-2.0038294E-2,4.6935197E-2,5.4297067E-2,-7.508162E-2,-5.062191E-2,6.568233E-2,6.980009E-2,-3.7330464E-2,6.645932E-2,-5.1212013E-2,-7.22807E-2,4.1843046E-2],"split_indices":[12,6,3,12,14,3,13,4,13,12,6,9,14,10,11,13,3,10,12,4,9,7,1,4,14,6,11,11,3,0,3,10,7,3,4,0,9,4,4,0,0,11,14,0,0,11,0,0,13,0,10,10,13,13,0,3,0,1,0,3,0,0,0,0,0,0,0,0,0,0,0,0,0,0,0,0,0,0,0,0,0,0,0,0,0,0,0,0,0,0,0,0,0,0,0,0,0,0,0,0,0,0,0],"split_type":[0,0,0,0,0,0,0,0,0,0,0,0,0,0,0,0,0,0,0,0,0,0,0,0,0,0,0,0,0,0,0,0,0,0,0,0,0,0,0,0,0,0,0,0,0,0,0,0,0,0,0,0,0,0,0,0,0,0,0,0,0,0,0,0,0,0,0,0,0,0,0,0,0,0,0,0,0,0,0,0,0,0,0,0,0,0,0,0,0,0,0,0,0,0,0,0,0,0,0,0,0,0,0],"sum_hessian":[7.045399E3,3.5662185E3,3.4791802E3,6.923815E2,2.8738372E3,3.2561274E3,2.2305283E2,3.795397E2,3.1284174E2,2.7809146E3,9.2922585E1,2.3979124E3,8.582149E2,8.1684525E1,1.413683E2,2.3272437E2,1.4681535E2,2.074599E2,1.0538183E2,2.6881365E3,9.2778E1,6.931039E1,2.3612202E1,5.714982E1,2.3407627E3,4.5242892E2,4.05786E2,6.444348E1,1.7241043E1,8.3874035E0,1.329809E2,2.2712941E2,5.5949616E0,6.965881E1,7.715653E1,1.3313588E2,7.432402E1,1.1713049E1,9.3668785E1,2.4091453E3,2.7899136E2,3.283639E1,5.9941605E1,1.6095957E1,5.3214428E1,1.9890226E1,3.7219753E0,1.4126408E0,5.573718E1,9.548474E-1,2.3398079E3,4.4276364E2,9.665256E0,4.045256E2,1.2604296E0,5.099525E0,5.9343956E1,1.4504109E1,2.7369344E0,1.2860367E2,4.377226E0,1.1083983E2,1.1628957E2,4.47469E0,1.1202718E0,1.6966774E1,5.2692043E1,1.0573377E1,6.658315E1,1.20866196E2,1.2269681E1,4.606471E1,2.825931E1,4.4964056E0,7.216643E0,1.3535475E0,9.231523E1,2.4291484E2,3.607652E1,6.9773145E0,2.5859077E1,5.972933E0,5.3968674E1,5.718939E0,1.0377018E1,1.7118948E1,2.7712786E0,5.4427032E1,1.3101453E0,5.642706E-1,2.3392434E3,7.1537113E0,4.3560995E2,3.9902623E0,5.674993E0,1.0271559E0,4.0349844E2,4.3661313E0,7.3339367E-1,1.3188514E1,1.3155961E0,2.9848862E0,1.2561878E2],"tree_param":{"num_deleted":"0","num_feature":"15","num_nodes":"103","size_leaf_vector":"1"}},{"base_weights":[-3.315667E-8,-6.2932926E-1,6.0691273E-1,-6.9132656E-1,-5.3788126E-2,6.91817E-1,1.4271013E-1,-6.992814E-1,3.966262E-1,-3.7903416E-1,2.006933E-1,7.3331296E-1,5.839352E-1,-3.6472198E-1,3.0437106E-1,-7.326325E-1,-5.469864E-1,-5.654617E-2,5.319064E-1,-2.632877E-1,-7.587198E-2,4.008549E-1,1.8613396E-2,7.429277E-2,6.2027687E-1,4.1797116E-1,6.1223423E-1,-7.839408E-2,-7.8236125E-2,2.056604E-1,5.4517996E-1,-7.515761E-2,-5.476038E-1,-6.247844E-1,-3.137637E-1,6.7293875E-2,-5.1175818E-2,-7.3925145E-2,-1.5753512E-1,4.5061383E-1,-6.2495586E-2,-1.027525E-1,5.0366896E-1,3.2513937E-1,6.627438E-1,4.525327E-1,-7.4983425E-2,4.6753988E-1,6.3601977E-1,-2.2811498E-1,6.1621666E-1,-3.1391248E-1,2.7230704E-1,5.9335345E-1,-6.949769E-2,-3.7513223E-2,-7.623907E-2,1.2457037E-2,-6.628696E-2,2.0289312E-3,-6.0890466E-2,3.9991077E-2,-5.466749E-2,4.6201963E-3,-4.786673E-2,6.57425E-2,3.0093048E-2,1.5099959E-2,-5.2859403E-2,6.593359E-2,-6.0151186E-2,4.7508825E-2,-7.125876E-2,-3.4257624E-2,6.6819936E-2,4.7726855E-2,-6.5509625E-2,5.667262E-2,5.8405916E-3,5.94374E-2,6.9370314E-2,-2.6985784E-3,-6.518652E-2,-3.6131036E-2,6.966993E-2,1.7301125E-2,-8.351874E-2,3.7337657E-2,9.740455E-3,-5.300289E-2,6.1060786E-2],"categories":[],"categories_nodes":[],"categories_segments":[],"categories_sizes":[],"default_left":[1,0,0,1,1,0,0,1,0,0,0,0,0,0,0,0,1,0,1,0,0,0,0,0,0,0,0,0,0,0,0,0,0,0,0,0,0,0,0,0,0,0,0,0,0,0,0,0,0,0,0,0,1,0,0,0,0,0,0,0,0,0,0,0,0,0,0,0,0,0,0,0,0,0,0,0,0,0,0,0,0,0,0,0,0,0,0,0,0,0,0],"id":4,"left_children":[1,3,5,7,9,11,13,15,17,19,21,23,25,27,29,31,33,-1,35,37,-1,39,41,-1,43,45,47,49,-1,51,53,-1,55,57,59,-1,61,-1,63,65,-1,67,69,71,73,75,-1,77,79,81,83,85,87,89,-1,-1,-1,-1,-1,-1,-1,-1,-1,-1,-1,-1,-1,-1,-1,-1,-1,-1,-1,-1,-1,-1,-1,-1,-1,-1,-1,-1,-1,-1,-1,-1,-1,-1,-1,-1,-1],"loss_changes":[2.647522E3,1.2138757E2,1.3897559E2,2.686377E1,2.7555843E1,1.2924683E1,4.4971813E1,1.5090942E1,3.2860076E0,6.2203045E0,6.8048997E0,1.8762207E0,3.658783E0,1.5793444E1,9.759361E0,8.348267E0,9.817413E0,0E0,1.7304497E0,5.595868E0,0E0,4.8239603E0,5.8756585E0,0E0,1.9731293E0,5.3671684E0,2.1459656E0,8.436424E0,0E0,1.0340573E1,7.589405E0,0E0,8.448723E0,1.1864319E1,1.382074E1,0E0,1.3241684E0,0E0,6.1805162E0,2.4474945E0,0E0,8.720246E0,3.8320117E0,4.0619464E0,1.0608826E0,3.6446629E0,0E0,4.1873302E0,1.0456848E0,5.6376886E0,1.3858328E0,8.808355E0,4.6130886E0,2.575592E0,0E0,0E0,0E0,0E0,0E0,0E0,0E0,0E0,0E0,0E0,0E0,0E0,0E0,0E0,0E0,0E0,0E0,0E0,0E0,0E0,0E0,0E0,0E0,0E0,0E0,0E0,0E0,0E0,0E0,0E0,0E0,0E0,0E0,0E0,0E0,0E0,0E0],"parents":[2147483647,0,0,1,1,2,2,3,3,4,4,5,5,6,6,7,7,8,8,9,9,10,10,11,11,12,12,13,13,14,14,15,15,16,16,18,18,19,19,21,21,22,22,24,24,25,25,26,26,27,27,29,29,30,30,32,32,33,33,34,34,36,36,38,38,39,39,41,41,42,42,43,43,44,44,45,45,47,47,48,48,49,49,50,50,51,51,52,52,53,53],"right_children":[2,4,6,8,10,12,14,16,18,20,22,24,26,28,30,32,34,-1,36,38,-1,40,42,-1,44,46,48,50,-1,52,54,-1,56,58,60,-1,62,-1,64,66,-1,68,70,72,74,76,-1,78,80,82,84,86,88,90,-1,-1,-1,-1,-1,-1,-1,-1,-1,-1,-1,-1,-1,-1,-1,-1,-1,-1,-1,-1,-1,-1,-1,-1,-1,-1,-1,-1,-1,-1,-1,-1,-1,-1,-1,-1,-1],"split_conditions":[9.9982476E-1,1.5956137E0,4E0,7.351522E-1,9.99723E-1,2E0,6.6901827E-1,3.837517E-1,9.7576326E-1,2.9E1,9.7106326E-1,2E0,7.380433E-1,2.7E1,8.996841E-1,-1.3613424E0,9.754142E-1,-5.654617E-2,9.7612417E-1,-1.0369517E0,-7.587198E-2,3.9E1,9.1086817E-1,7.429277E-2,7.7444285E-1,6.966676E-1,9.9992436E-1,8.4E1,-7.8236125E-2,-1.4196949E0,1.7E1,-7.515761E-2,-6.910129E0,-6.7963176E0,9.799842E-1,6.7293875E-2,6E0,-7.3925145E-2,-1.8125864E0,-1.3499032E0,-6.2495586E-2,6.9773644E-1,8.12285E-1,7.6144224E-1,2.7700417E0,9.538627E-1,-7.4983425E-2,5E0,9.975444E-1,-8.004096E0,9.7813857E-1,-1.4951738E0,9.7175246E-1,5.665025E-1,-6.949769E-2,-3.7513223E-2,-7.623907E-2,1.2457037E-2,-6.628696E-2,2.0289312E-3,-6.0890466E-2,3.9991077E-2,-5.466749E-2,4.6201963E-3,-4.786673E-2,6.57425E-2,3.0093048E-2,1.5099959E-2,-5.2859403E-2,6.593359E-2,-6.0151186E-2,4.7508825E-2,-7.125876E-2,-3.4257624E-2,6.6819936E-2,4.7726855E-2,-6.5509625E-2,5.667262E-2,5.8405916E-3,5.94374E-2,6.9370314E-2,-2.6985784E-3,-6.518652E-2,-3.6131036E-2,6.966993E-2,1.7301125E-2,-8.351874E-2,3.7337657E-2,9.740455E-3,-5.300289E-2,6.1060786E-2],"split_indices":[12,13,3,14,12,6,13,14,10,3,10,3,9,3,9,4,10,0,10,11,0,0,14,0,11,9,12,0,0,4,6,0,7,7,10,0,0,0,7,4,0,14,11,11,13,11,0,6,10,7,10,4,10,14,0,0,0,0,0,0,0,0,0,0,0,0,0,0,0,0,0,0,0,0,0,0,0,0,0,0,0,0,0,0,0,0,0,0,0,0,0],"split_type":[0,0,0,0,0,0,0,0,0,0,0,0,0,0,0,0,0,0,0,0,0,0,0,0,0,0,0,0,0,0,0,0,0,0,0,0,0,0,0,0,0,0,0,0,0,0,0,0,0,0,0,0,0,0,0,0,0,0,0,0,0,0,0,0,0,0,0,0,0,0,0,0,0,0,0,0,0,0,0,0,0,0,0,0,0,0,0,0,0,0,0],"sum_hessian":[6.9296304E3,3.4019705E3,3.52766E3,3.070965E3,3.3100534E2,2.98179E3,5.4586993E2,3.0490283E3,2.1936619E1,1.4508568E2,1.8591965E2,2.1492854E3,8.3250476E2,1.3158525E2,4.1428467E2,2.4981484E3,5.5088E2,2.3122678E0,1.962435E1,1.1248751E2,3.259817E1,8.7990074E1,9.792957E1,1.9756649E3,1.7362035E2,1.2357139E2,7.0893335E2,7.876958E1,5.281567E1,2.951521E2,1.19132576E2,2.2633591E3,2.3478923E2,4.1182523E2,1.3905481E2,1.5678117E1,3.9462333E0,1.9360544E1,9.312697E1,8.445418E1,3.5358913E0,7.896091E1,1.8968668E1,2.2928415E1,1.5069194E2,1.2061427E2,2.9571216E0,1.0300152E2,6.059318E2,6.535429E1,1.3415293E1,3.3133717E1,2.6201837E2,1.1518E2,3.952581E0,1.3174553E2,1.030437E2,1.9808437E1,3.9201678E2,6.566437E1,7.339044E1,2.1666749E0,1.7795584E0,5.7501926E1,3.562504E1,3.403599E1,5.041819E1,4.9882275E1,2.9078632E1,1.6980362E1,1.9883052E0,2.0507341E1,2.421074E0,4.7981715E-1,1.5021211E2,1.185362E2,2.0780716E0,8.259326E1,2.040826E1,3.584472E2,2.4748463E2,4.5040096E1,2.031419E1,7.550689E-1,1.2660223E1,1.7476753E1,1.5656961E1,1.6533992E2,9.667847E1,1.2927723E0,1.1388722E2],"tree_param":{"num_deleted":"0","num_feature":"15","num_nodes":"91","size_leaf_vector":"1"}},{"base_weights":[-4.629489E-8,-5.8565027E-1,5.9300584E-1,-1.883314E-1,-6.832725E-1,6.5976566E-1,1.723166E-1,-4.3604788E-1,1.1103903E-1,-6.9416654E-1,-3.5334295E-1,6.9431645E-1,5.236293E-1,3.046531E-1,-3.286761E-1,-5.7100385E-1,-2.199362E-1,-3.9212637E-2,4.0436327E-1,-7.043704E-1,-3.8729948E-1,-5.50637E-1,2.120781E-1,7.099377E-2,6.135397E-1,4.2757794E-1,5.927166E-1,1.1634749E-1,4.2425352E-1,-4.8331532E-1,5.583054E-1,-6.000944E-1,4.493569E-1,2.2710837E-1,-3.2838714E-1,2.7810556E-1,-1.3740426E-1,-1.7795809E-1,4.7888562E-1,-7.1659155E-2,-5.984524E-1,-9.357643E-2,-5.6761354E-1,-7.360674E-2,-2.2993608E-1,3.8537303E-1,-6.076128E-2,-6.7662455E-2,6.2224144E-1,4.4348502E-1,-4.5878795E-1,5.96885E-1,-4.606663E-2,-6.244858E-1,2.1022877E-1,-6.069203E-2,4.3519312E-1,4.9664146E-1,-6.039008E-1,-3.8024206E-2,6.4333695E-1,-7.329032E-2,-4.6841554E-2,6.742541E-2,-4.095776E-2,-5.9512552E-2,3.844131E-2,-1.4057042E-2,-5.26913E-2,-7.386129E-2,4.6025854E-2,-5.361838E-2,5.9421253E-3,-6.566213E-2,1.111502E-2,-5.0173175E-2,4.9786292E-2,-6.741734E-2,-9.02712E-3,2.8814444E-2,-7.138201E-2,-7.4429646E-2,1.2452733E-2,6.335428E-2,-3.710014E-2,5.337602E-2,-6.1522353E-2,-5.3197123E-2,6.2650524E-2,2.3084482E-2,4.945587E-2,3.5684314E-2,-7.277382E-2,6.2214512E-2,4.444891E-2,-7.311783E-2,2.6605979E-2,-3.6530577E-2,2.7613638E-2,6.036554E-2,3.858001E-2,6.415464E-2,-4.103581E-2,2.736747E-3,-7.688012E-2,7.088234E-2,-3.163439E-2],"categories":[],"categories_nodes":[],"categories_segments":[],"categories_sizes":[],"default_left":[1,0,0,1,1,0,0,0,0,1,0,0,0,0,0,0,0,0,0,0,0,1,0,0,0,0,0,0,0,0,0,1,0,0,0,0,0,0,0,0,0,0,1,0,0,1,0,0,0,0,0,0,0,0,0,0,0,0,0,0,0,0,0,0,0,0,0,0,0,0,0,0,0,0,0,0,0,0,0,0,0,0,0,0,0,0,0,0,0,0,0,0,0,0,0,0,0,0,0,0,0,0,0,0,0,0,0],"id":5,"left_children":[1,3,5,7,9,11,13,15,17,19,21,23,25,27,29,31,33,35,37,39,41,43,45,-1,47,49,51,53,55,57,59,61,63,65,67,69,71,73,75,-1,77,79,81,-1,83,85,-1,-1,87,89,91,93,-1,95,97,-1,99,101,103,-1,105,-1,-1,-1,-1,-1,-1,-1,-1,-1,-1,-1,-1,-1,-1,-1,-1,-1,-1,-1,-1,-1,-1,-1,-1,-1,-1,-1,-1,-1,-1,-1,-1,-1,-1,-1,-1,-1,-1,-1,-1,-1,-1,-1,-1,-1,-1],"loss_changes":[2.3708242E3,1.3308899E2,9.5150635E1,5.0388855E1,9.66333E0,1.3404175E1,3.0989845E1,1.0714012E1,1.3597232E1,8.079956E0,1.0173814E1,2.5064697E0,3.7053528E0,8.26276E0,1.3689074E1,7.0420914E0,7.080168E0,6.4159184E0,4.6188354E0,2.911499E0,4.611246E0,3.8217163E0,3.6493287E0,0E0,4.745392E0,3.7730293E0,1.7872162E0,1.0197907E1,2.8060722E0,1.0207912E1,1.4408059E0,3.5436707E0,1.6083397E0,3.954039E0,4.2771034E0,9.359487E0,1.2353785E1,1.8141282E0,1.9784126E0,0E0,1.0444756E1,8.420584E0,6.7418213E0,0E0,3.4071183E0,3.3659558E0,0E0,0E0,2.21875E0,2.5923843E0,1.3466161E0,1.0456924E0,0E0,1.7652006E0,5.0019975E0,0E0,1.6272774E0,1.5428133E0,7.839781E0,0E0,1.1112995E0,0E0,0E0,0E0,0E0,0E0,0E0,0E0,0E0,0E0,0E0,0E0,0E0,0E0,0E0,0E0,0E0,0E0,0E0,0E0,0E0,0E0,0E0,0E0,0E0,0E0,0E0,0E0,0E0,0E0,0E0,0E0,0E0,0E0,0E0,0E0,0E0,0E0,0E0,0E0,0E0,0E0,0E0,0E0,0E0,0E0,0E0],"parents":[2147483647,0,0,1,1,2,2,3,3,4,4,5,5,6,6,7,7,8,8,9,9,10,10,11,11,12,12,13,13,14,14,15,15,16,16,17,17,18,18,19,19,20,20,21,21,22,22,24,24,25,25,26,26,27,27,28,28,29,29,30,30,31,31,32,32,33,33,34,34,35,35,36,36,37,37,38,38,40,40,41,41,42,42,44,44,45,45,48,48,49,49,50,50,51,51,53,53,54,54,56,56,57,57,58,58,60,60],"right_children":[2,4,6,8,10,12,14,16,18,20,22,24,26,28,30,32,34,36,38,40,42,44,46,-1,48,50,52,54,56,58,60,62,64,66,68,70,72,74,76,-1,78,80,82,-1,84,86,-1,-1,88,90,92,94,-1,96,98,-1,100,102,104,-1,106,-1,-1,-1,-1,-1,-1,-1,-1,-1,-1,-1,-1,-1,-1,-1,-1,-1,-1,-1,-1,-1,-1,-1,-1,-1,-1,-1,-1,-1,-1,-1,-1,-1,-1,-1,-1,-1,-1,-1,-1,-1,-1,-1,-1,-1,-1],"split_conditions":[9.998408E-1,2.5E1,4E0,9.99723E-1,5.2476174E-1,2E0,4.2E1,-1.3613424E0,2.5730586E0,9.997987E-1,5.6E1,2E0,9.1086817E-1,1.934691E0,8.4E1,3.4405391E0,-4.756608E0,9.6264243E-1,9.99767E-1,-1.3601656E0,2.5E1,9.7596055E-1,1.6674988E1,7.099377E-2,6.640081E-1,9.564948E-1,3.8E1,9.9985784E-1,5.309595E-1,7.6191765E-1,9.7813857E-1,9.542666E-1,-8.095894E0,9.995574E-1,7E0,7.8820354E-1,-3.1600187E0,-1.2078001E0,7.210441E-1,-7.1659155E-2,6.5E1,-1.4936921E-1,4.3602914E-1,-7.360674E-2,9.7612417E-1,9.997211E-1,-6.076128E-2,-6.7662455E-2,-1.1624453E0,9.999159E-1,9.630641E-1,7.030709E1,-4.606663E-2,-1.1158233E0,-1.4366281E0,-6.069203E-2,2E0,-8.004096E0,8E0,-3.8024206E-2,9.8259485E-1,-7.329032E-2,-4.6841554E-2,6.742541E-2,-4.095776E-2,-5.9512552E-2,3.844131E-2,-1.4057042E-2,-5.26913E-2,-7.386129E-2,4.6025854E-2,-5.361838E-2,5.9421253E-3,-6.566213E-2,1.111502E-2,-5.0173175E-2,4.9786292E-2,-6.741734E-2,-9.02712E-3,2.8814444E-2,-7.138201E-2,-7.4429646E-2,1.2452733E-2,6.335428E-2,-3.710014E-2,5.337602E-2,-6.1522353E-2,-5.3197123E-2,6.2650524E-2,2.3084482E-2,4.945587E-2,3.5684314E-2,-7.277382E-2,6.2214512E-2,4.444891E-2,-7.311783E-2,2.6605979E-2,-3.6530577E-2,2.7613638E-2,6.036554E-2,3.858001E-2,6.415464E-2,-4.103581E-2,2.736747E-3,-7.688012E-2,7.088234E-2,-3.163439E-2],"split_indices":[12,6,3,12,14,3,6,4,13,12,6,6,14,13,0,13,7,10,12,4,3,10,1,0,11,9,0,12,14,11,10,10,7,12,0,9,7,4,11,0,0,13,14,0,10,12,0,0,9,12,10,1,0,4,4,0,6,7,3,0,10,0,0,0,0,0,0,0,0,0,0,0,0,0,0,0,0,0,0,0,0,0,0,0,0,0,0,0,0,0,0,0,0,0,0,0,0,0,0,0,0,0,0,0,0,0,0],"split_type":[0,0,0,0,0,0,0,0,0,0,0,0,0,0,0,0,0,0,0,0,0,0,0,0,0,0,0,0,0,0,0,0,0,0,0,0,0,0,0,0,0,0,0,0,0,0,0,0,0,0,0,0,0,0,0,0,0,0,0,0,0,0,0,0,0,0,0,0,0,0,0,0,0,0,0,0,0,0,0,0,0,0,0,0,0,0,0,0,0,0,0,0,0,0,0,0,0,0,0,0,0,0,0,0,0,0,0],"sum_hessian":[6.8245625E3,3.4335825E3,3.39098E3,6.7781775E2,2.755765E3,2.926069E3,4.649108E2,3.706576E2,3.0716016E2,2.666611E3,8.9153824E1,2.3304995E3,5.9556964E2,3.6807596E2,9.683485E1,2.2716003E2,1.4349756E2,2.0368924E2,1.0347094E2,2.5795417E3,8.7069305E1,6.6111496E1,2.304233E1,1.9463148E3,3.8418463E2,2.5216972E2,3.4339993E2,1.437386E2,2.2433734E2,8.284626E1,1.3988584E1,2.2126369E2,5.896346E0,2.780182E1,1.1569574E2,4.7702034E1,1.559872E2,1.1581842E1,9.18891E1,2.3075266E3,2.720151E2,3.3697174E1,5.337213E1,4.106968E1,2.5041819E1,1.9458391E1,3.5839393E0,2.0596144E0,3.82125E2,2.4821481E2,3.9549003E0,3.4247803E2,9.2188144E-1,1.5530768E1,1.2820784E2,1.7830874E0,2.2255426E2,8.735696E0,7.4110565E1,8.7366104E-1,1.3114923E1,1.0788602E2,1.1337766E2,4.843239E0,1.053107E0,4.0177464E0,2.3784075E1,6.032908E1,5.5366657E1,6.7835526E0,4.091848E1,5.097825E1,1.0500895E2,3.882527E0,7.6993155E0,1.2615644E0,9.062753E1,2.3645564E2,3.555945E1,2.119093E1,1.25062475E1,4.2458412E1,1.0913716E1,3.0263019E0,2.2015516E1,1.7351711E1,2.106679E0,9.5088893E-1,3.8117413E2,4.914099E1,1.9907382E2,8.996822E-1,3.0552182E0,2.9113846E2,5.133957E1,1.4028971E1,1.5017977E0,1.2706483E1,1.1550136E2,4.791422E1,1.7464005E2,7.784666E0,9.5102954E-1,1.552233E1,5.8588238E1,1.2521856E1,5.930665E-1],"tree_param":{"num_deleted":"0","num_feature":"15","num_nodes":"107","size_leaf_vector":"1"}},{"base_weights":[-4.4299013E-9,-5.6325877E-1,5.678714E-1,-6.292101E-1,-2.6216067E-2,6.319649E-1,1.6508056E-1,-6.3825905E-1,2.9300314E-1,-3.5349655E-1,1.8202235E-1,6.65747E-1,4.9827474E-1,-2.9544458E-1,2.8592402E-1,-6.5286314E-1,-2.8562227E-1,5.441548E-1,-3.667482E-1,-2.5059623E-1,-6.98091E-2,1.1981638E-2,3.923768E-1,-6.1203886E-2,6.669553E-1,5.5387574E-1,3.7256876E-1,-4.4894505E-1,5.2734315E-1,1.04125485E-1,3.9631715E-1,-6.7804235E-1,-5.321439E-1,1.0085622E-2,-5.728731E-1,6.1962026E-1,-4.3415938E-2,2.8343981E-2,-6.56724E-2,-9.230192E-2,-5.10697E-1,-2.1793488E-1,1.8398735E-1,-5.9714627E-2,4.2827338E-1,6.819176E-2,5.897899E-1,-5.580876E-2,5.5945796E-1,-6.1701197E-2,3.870557E-1,-7.310699E-2,-2.2673834E-2,-3.504018E-2,5.9691668E-2,-6.078825E-2,1.7873272E-1,3.419575E-1,6.021607E-1,-6.907379E-2,-5.5004835E-2,-6.0023632E-2,-3.591534E-2,-1.9069476E-2,3.896528E-2,-7.1348004E-2,-2.420446E-2,6.6181995E-2,-3.1374056E-2,-2.964344E-2,1.965294E-2,-6.415313E-2,5.4552235E-2,-7.6096915E-2,6.999999E-4,4.909087E-2,-6.196607E-4,-8.060414E-3,4.7620207E-2,-3.9676834E-2,5.926484E-2,-5.0359108E-2,5.633476E-2,1.4265071E-2,4.471421E-2,2.6368577E-2,-5.0601613E-2,6.0290486E-2,8.568953E-3,3.7727036E-2,-7.90455E-2,6.544458E-2,-5.557501E-3],"categories":[],"categories_nodes":[],"categories_segments":[],"categories_sizes":[],"default_left":[1,0,0,1,1,0,0,1,0,0,0,0,0,0,0,1,0,0,0,0,0,0,0,0,0,0,0,0,0,0,0,0,1,0,1,0,0,0,0,0,0,0,0,0,0,0,0,0,0,0,0,0,0,0,0,0,0,0,0,0,0,0,0,0,0,0,0,0,0,0,0,0,0,0,0,0,0,0,0,0,0,0,0,0,0,0,0,0,0,0,0,0,0],"id":6,"left_children":[1,3,5,7,9,11,13,15,17,19,21,23,25,27,29,31,33,35,37,39,-1,41,43,-1,45,47,49,51,53,55,57,59,61,63,65,67,-1,-1,-1,69,71,73,75,-1,77,-1,79,-1,81,-1,83,-1,85,-1,-1,-1,87,89,91,-1,-1,-1,-1,-1,-1,-1,-1,-1,-1,-1,-1,-1,-1,-1,-1,-1,-1,-1,-1,-1,-1,-1,-1,-1,-1,-1,-1,-1,-1,-1,-1,-1,-1],"loss_changes":[2.1458086E3,1.1927307E2,8.613818E1,2.5218628E1,2.5240553E1,1.2682983E1,2.5681492E1,1.5112671E1,5.1426296E0,4.930664E0,8.094221E0,3.9553833E0,3.884262E0,1.2373721E1,7.2811127E0,8.307617E0,1.0191662E1,1.8939362E0,1.8495295E0,4.5821786E0,0E0,5.0325675E0,3.8497953E0,0E0,2.248352E0,2.818222E0,2.855648E0,9.788181E0,1.1599345E0,7.5032096E0,2.3302307E0,3.4486084E0,5.6365967E0,4.652259E0,2.657608E0,1.0286779E0,0E0,0E0,0E0,4.251403E0,6.197953E0,6.6603813E0,4.250023E0,0E0,2.434019E0,0E0,1.3074646E0,0E0,1.9467697E0,0E0,2.5871696E0,0E0,4.7703533E0,0E0,0E0,0E0,4.9515777E0,7.5608063E0,1.6195507E0,0E0,0E0,0E0,0E0,0E0,0E0,0E0,0E0,0E0,0E0,0E0,0E0,0E0,0E0,0E0,0E0,0E0,0E0,0E0,0E0,0E0,0E0,0E0,0E0,0E0,0E0,0E0,0E0,0E0,0E0,0E0,0E0,0E0,0E0],"parents":[2147483647,0,0,1,1,2,2,3,3,4,4,5,5,6,6,7,7,8,8,9,9,10,10,11,11,12,12,13,13,14,14,15,15,16,16,17,17,18,18,19,19,21,21,22,22,24,24,25,25,26,26,27,27,28,28,29,29,30,30,31,31,32,32,33,33,34,34,35,35,39,39,40,40,41,41,42,42,44,44,46,46,48,48,50,50,52,52,56,56,57,57,58,58],"right_children":[2,4,6,8,10,12,14,16,18,20,22,24,26,28,30,32,34,36,38,40,-1,42,44,-1,46,48,50,52,54,56,58,60,62,64,66,68,-1,-1,-1,70,72,74,76,-1,78,-1,80,-1,82,-1,84,-1,86,-1,-1,-1,88,90,92,-1,-1,-1,-1,-1,-1,-1,-1,-1,-1,-1,-1,-1,-1,-1,-1,-1,-1,-1,-1,-1,-1,-1,-1,-1,-1,-1,-1,-1,-1,-1,-1,-1,-1],"split_conditions":[9.998408E-1,1.5956137E0,4E0,7.161486E-1,9.99723E-1,2E0,6.6901827E-1,9.997987E-1,1.8963907E1,2.9E1,8.7019247E-1,-8.697848E0,4E0,8.4E1,1.934691E0,3.837517E-1,2.5E1,5.5E1,6E0,1.2E1,-6.98091E-2,2.1946964E0,-1.4423045E0,-6.1203886E-2,2E0,6.9773644E-1,9.6156746E-1,-1.3692514E0,8.6471707E-1,9.9985784E-1,9.4198453E-1,-1.3613424E0,9.7340953E-1,2.876696E1,4.3602914E-1,8.601401E-1,-4.3415938E-2,2.8343981E-2,-6.56724E-2,9E0,2.8E1,-2.512704E0,9.6264243E-1,-5.9714627E-2,5.8293855E-1,6.819176E-2,6.640081E-1,-5.580876E-2,2.3068101E0,-6.1701197E-2,-1.2775265E0,-7.310699E-2,-8.004096E0,-3.504018E-2,5.9691668E-2,-6.078825E-2,-8.255824E0,9.271743E-1,3.9250473E1,-6.907379E-2,-5.5004835E-2,-6.0023632E-2,-3.591534E-2,-1.9069476E-2,3.896528E-2,-7.1348004E-2,-2.420446E-2,6.6181995E-2,-3.1374056E-2,-2.964344E-2,1.965294E-2,-6.415313E-2,5.4552235E-2,-7.6096915E-2,6.999999E-4,4.909087E-2,-6.196607E-4,-8.060414E-3,4.7620207E-2,-3.9676834E-2,5.926484E-2,-5.0359108E-2,5.633476E-2,1.4265071E-2,4.471421E-2,2.6368577E-2,-5.0601613E-2,6.0290486E-2,8.568953E-3,3.7727036E-2,-7.90455E-2,6.544458E-2,-5.557501E-3],"split_indices":[12,13,3,14,12,3,13,12,1,3,9,7,6,0,13,14,3,3,0,0,0,13,4,0,6,14,10,4,9,12,9,4,10,1,14,11,0,0,0,6,3,7,10,0,14,0,11,0,13,0,4,0,7,0,0,0,7,11,1,0,0,0,0,0,0,0,0,0,0,0,0,0,0,0,0,0,0,0,0,0,0,0,0,0,0,0,0,0,0,0,0,0,0],"split_type":[0,0,0,0,0,0,0,0,0,0,0,0,0,0,0,0,0,0,0,0,0,0,0,0,0,0,0,0,0,0,0,0,0,0,0,0,0,0,0,0,0,0,0,0,0,0,0,0,0,0,0,0,0,0,0,0,0,0,0,0,0,0,0,0,0,0,0,0,0,0,0,0,0,0,0,0,0,0,0,0,0,0,0,0,0,0,0,0,0,0,0,0,0],"sum_hessian":[6.7066167E3,3.3669868E3,3.3396296E3,2.9985762E3,3.684106E2,2.8806772E3,4.589524E2,2.9697444E3,2.883182E1,1.4298651E2,2.2542409E2,2.2964172E3,5.8426E2,9.5097664E1,3.6385474E2,2.850829E3,1.18915276E2,2.1009295E1,7.8225265E0,1.1143717E2,3.1549345E1,1.252416E2,1.00182495E2,1.6919678E0,2.2947253E3,4.0272467E2,1.8153532E2,8.052851E1,1.4569156E1,1.3820236E2,2.2565237E2,2.355012E3,4.958172E2,5.907053E1,5.9844746E1,1.9845121E1,1.164173E0,2.4196622E0,5.4028645E0,7.0118645E1,4.1318523E1,5.3483833E1,7.175777E1,2.9597251E0,9.722277E1,1.9154791E3,3.792462E2,1.5172373E0,4.0120743E2,2.0191572E0,1.7951617E2,4.802707E1,3.250144E1,7.735507E-1,1.3795605E1,1.2429994E1,1.2577237E2,1.8061609E2,4.503628E1,2.1385005E3,2.1651129E2,3.5400443E2,1.418128E2,3.89596E1,2.0110931E1,4.1184216E1,1.8660528E1,1.9265026E1,5.800939E-1,4.106764E1,2.905101E1,3.7113834E1,4.204689E0,1.4967197E1,3.8516636E1,2.684834E1,4.4909428E1,8.310045E0,8.891273E1,6.975361E-1,3.7854865E2,9.942898E-1,4.0021313E2,3.6090393E1,1.4342578E2,2.0694996E1,1.1806443E1,2.1639732E1,1.0413264E2,1.7580081E2,4.81528E0,4.172449E1,3.3117871E0],"tree_param":{"num_deleted":"0","num_feature":"15","num_nodes":"93","size_leaf_vector":"1"}},{"base_weights":[-1.9406066E-8,-5.437744E-1,5.4470176E-1,-1.826423E-1,-6.34347E-1,6.212922E-1,2.2869486E-1,-4.0969774E-1,9.2724025E-2,-6.44659E-1,-3.23246E-1,4.643484E-1,6.3809866E-1,3.0165246E-1,-3.6297897E-1,-5.3749084E-1,-2.0876977E-1,-4.237094E-2,3.5188088E-1,-6.5242E-1,-2.827955E-1,-5.12779E-1,2.1764432E-1,2.5083262E-1,5.6288165E-1,6.499218E-2,5.4610693E-1,9.8586276E-2,3.9064974E-1,-5.155689E-1,5.3724253E-1,-5.6016845E-1,3.8519785E-1,7.2504426E-3,-4.09381E-1,2.733218E-1,-1.3827118E-1,-1.6911131E-1,4.1828752E-1,-6.662242E-2,-5.385651E-1,-1.8647553E-3,-4.251551E-1,-6.842524E-2,-2.2049123E-1,3.905274E-1,-5.6671184E-2,3.167564E-1,-7.970023E-2,-2.7394128E-1,5.832903E-1,5.5096503E-2,-4.502577E-2,-6.264303E-1,1.5567212E-1,3.2500884E-1,5.443411E-1,-7.0419446E-2,-3.815229E-2,6.4971775E-2,-3.584955E-2,-6.8332836E-2,-4.393836E-2,6.228099E-2,-3.787766E-2,-5.2055378E-2,1.8629953E-2,4.012596E-2,-5.4039717E-2,-6.6126354E-2,4.2163115E-2,-5.9452664E-2,-4.651977E-4,4.579271E-2,-3.499357E-2,-4.5795664E-2,4.3734003E-2,-6.0347658E-2,-9.882577E-3,-5.9767324E-2,2.2958176E-2,-5.4399736E-2,2.8669355E-2,-3.5645287E-2,5.7142187E-2,5.359741E-2,-5.356694E-2,1.1829755E-2,5.030073E-2,3.916349E-2,-6.8917565E-2,-5.1389933E-2,5.949941E-2,-7.084456E-2,3.109096E-2,2.7674375E-2,-6.5624625E-3,3.6930498E-2,-7.014211E-2,-5.1559944E-2,5.5967916E-2,-6.3162796E-2,2.4790984E-2],"categories":[],"categories_nodes":[],"categories_segments":[],"categories_sizes":[],"default_left":[1,0,0,1,1,1,0,0,0,1,0,0,0,0,0,0,0,0,0,0,0,1,0,0,0,0,0,0,0,0,0,1,0,0,0,0,0,0,0,0,0,0,0,0,0,0,0,0,0,0,0,0,0,0,0,0,0,0,0,0,0,0,0,0,0,0,0,0,0,0,0,0,0,0,0,0,0,0,0,0,0,0,0,0,0,0,0,0,0,0,0,0,0,0,0,0,0,0,0,0,0,0,0],"id":7,"left_children":[1,3,5,7,9,11,13,15,17,19,21,23,25,27,29,31,33,35,37,39,41,43,45,47,49,-1,51,53,55,57,59,61,63,65,67,69,71,73,75,-1,77,79,81,-1,83,85,-1,87,-1,89,91,-1,-1,93,95,97,99,-1,101,-1,-1,-1,-1,-1,-1,-1,-1,-1,-1,-1,-1,-1,-1,-1,-1,-1,-1,-1,-1,-1,-1,-1,-1,-1,-1,-1,-1,-1,-1,-1,-1,-1,-1,-1,-1,-1,-1,-1,-1,-1,-1,-1,-1],"loss_changes":[1.9510297E3,1.0770154E2,7.9502686E1,4.1450623E1,8.244751E0,6.6887207E0,2.7889698E1,9.213913E0,1.0523319E1,6.975342E0,8.983693E0,5.32502E0,2.2437134E0,1.0325119E1,1.0043257E1,4.8478317E0,6.1928587E0,6.0380316E0,3.63276E0,3.562622E0,2.2106295E0,3.0760498E0,3.3616571E0,6.0442605E0,3.1822472E0,0E0,1.59552E0,7.3851295E0,3.8420525E0,5.49366E0,1.3204229E0,2.9199066E0,1.307445E0,6.68936E0,8.084231E0,6.726016E0,9.305118E0,1.5607115E0,1.7295952E0,0E0,7.790642E0,2.8401542E0,3.2601838E0,0E0,2.925715E0,2.9231524E0,0E0,2.8826904E0,0E0,1.6224027E0,2.528347E0,0E0,0E0,1.2235847E0,4.4129333E0,1.306394E1,2.202755E0,0E0,3.2835202E0,0E0,0E0,0E0,0E0,0E0,0E0,0E0,0E0,0E0,0E0,0E0,0E0,0E0,0E0,0E0,0E0,0E0,0E0,0E0,0E0,0E0,0E0,0E0,0E0,0E0,0E0,0E0,0E0,0E0,0E0,0E0,0E0,0E0,0E0,0E0,0E0,0E0,0E0,0E0,0E0,0E0,0E0,0E0,0E0],"parents":[2147483647,0,0,1,1,2,2,3,3,4,4,5,5,6,6,7,7,8,8,9,9,10,10,11,11,12,12,13,13,14,14,15,15,16,16,17,17,18,18,19,19,20,20,21,21,22,22,23,23,24,24,26,26,27,27,28,28,29,29,30,30,31,31,32,32,33,33,34,34,35,35,36,36,37,37,38,38,40,40,41,41,42,42,44,44,45,45,47,47,49,49,50,50,53,53,54,54,55,55,56,56,58,58],"right_children":[2,4,6,8,10,12,14,16,18,20,22,24,26,28,30,32,34,36,38,40,42,44,46,48,50,-1,52,54,56,58,60,62,64,66,68,70,72,74,76,-1,78,80,82,-1,84,86,-1,88,-1,90,92,-1,-1,94,96,98,100,-1,102,-1,-1,-1,-1,-1,-1,-1,-1,-1,-1,-1,-1,-1,-1,-1,-1,-1,-1,-1,-1,-1,-1,-1,-1,-1,-1,-1,-1,-1,-1,-1,-1,-1,-1,-1,-1,-1,-1,-1,-1,-1,-1,-1,-1],"split_conditions":[9.998408E-1,2.5E1,3E0,9.99723E-1,5.2476174E-1,8.577029E-1,5.8E1,-1.3613424E0,2.5730586E0,9.998153E-1,5.6E1,2.9893318E1,2E0,1.8054131E0,8.4E1,3.4405391E0,1.1E1,9.6264243E-1,9.99767E-1,-1.3601656E0,-1.1624453E0,9.7596055E-1,1.6674988E1,2.5624907E1,7.6461005E-1,6.499218E-2,3.8E1,9.998546E-1,9.149907E-1,-1.3365308E0,8.8E1,9.542666E-1,-8.095894E0,6E0,-1.3578429E0,7.8820354E-1,9E0,8.7837243E-1,-1.4385625E0,-6.662242E-2,6.5E1,-1.2216485E0,1.71E2,-6.842524E-2,9.4E1,7.549951E-1,-5.6671184E-2,2.3068101E0,-7.970023E-2,9.998516E-1,9.998831E-1,5.5096503E-2,-4.502577E-2,-1.0786457E0,1.1200005E0,9.054103E-1,6.305238E-1,-7.0419446E-2,9.998921E-1,6.4971775E-2,-3.584955E-2,-6.8332836E-2,-4.393836E-2,6.228099E-2,-3.787766E-2,-5.2055378E-2,1.8629953E-2,4.012596E-2,-5.4039717E-2,-6.6126354E-2,4.2163115E-2,-5.9452664E-2,-4.651977E-4,4.579271E-2,-3.499357E-2,-4.5795664E-2,4.3734003E-2,-6.0347658E-2,-9.882577E-3,-5.9767324E-2,2.2958176E-2,-5.4399736E-2,2.8669355E-2,-3.5645287E-2,5.7142187E-2,5.359741E-2,-5.356694E-2,1.1829755E-2,5.030073E-2,3.916349E-2,-6.8917565E-2,-5.1389933E-2,5.949941E-2,-7.084456E-2,3.109096E-2,2.7674375E-2,-6.5624625E-3,3.6930498E-2,-7.014211E-2,-5.1559944E-2,5.5967916E-2,-6.3162796E-2,2.4790984E-2],"split_indices":[12,6,3,12,14,14,6,4,13,12,6,1,3,13,0,13,3,10,12,4,9,10,1,1,9,0,0,12,9,4,0,10,7,3,4,9,6,10,4,0,0,9,6,0,3,11,0,13,0,12,12,0,0,4,13,11,14,0,12,0,0,0,0,0,0,0,0,0,0,0,0,0,0,0,0,0,0,0,0,0,0,0,0,0,0,0,0,0,0,0,0,0,0,0,0,0,0,0,0,0,0,0,0],"split_type":[0,0,0,0,0,0,0,0,0,0,0,0,0,0,0,0,0,0,0,0,0,0,0,0,0,0,0,0,0,0,0,0,0,0,0,0,0,0,0,0,0,0,0,0,0,0,0,0,0,0,0,0,0,0,0,0,0,0,0,0,0,0,0,0,0,0,0,0,0,0,0,0,0,0,0,0,0,0,0,0,0,0,0,0,0,0,0,0,0,0,0,0,0,0,0,0,0,0,0,0,0,0,0],"sum_hessian":[6.5849795E3,3.2952957E3,3.2896838E3,6.6135394E2,2.633942E3,2.6471335E3,6.425503E2,3.622062E2,2.9914777E2,2.548399E3,8.554298E1,2.5882062E2,2.3883127E3,5.7245294E2,7.009737E1,2.2037163E2,1.4183456E2,1.9719118E2,1.0195659E2,2.4941038E3,5.429498E1,6.3384453E1,2.2158527E1,8.284533E1,1.759753E2,2.1109417E3,2.7737106E2,1.7507951E2,3.973734E2,6.0303116E1,9.7942505E0,2.154688E2,4.902837E0,6.875854E1,7.3076035E1,4.5514038E1,1.5167714E2,1.1351553E1,9.0605034E1,2.2200813E3,2.740226E2,1.860103E1,3.569395E1,3.9103176E1,2.4281277E1,1.8567987E1,3.59054E0,7.859809E1,4.2472386E0,3.893791E0,1.720815E2,2.7647006E2,9.0099376E-1,1.2051131E1,1.6302838E2,2.806316E2,1.1674181E2,4.288457E1,1.7418547E1,8.945631E0,8.4861994E-1,1.0437946E2,1.1108933E2,3.88065E0,1.022187E0,1.693371E1,5.182483E1,9.880348E0,6.3195686E1,5.759751E0,3.9754288E1,3.3576744E1,1.1810039E2,2.1978173E0,9.153736E0,1.4379029E0,8.916714E1,2.3845158E2,3.5571022E1,4.7614303E0,1.3839601E1,3.0789482E1,4.904468E0,2.1192646E1,3.0886302E0,1.641202E1,2.1559684E0,3.8843605E1,3.975449E1,1.5177824E0,2.3760085E0,1.3633473E0,1.7071815E2,1.1306068E1,7.450626E-1,1.0521476E2,5.7813625E1,2.6963553E2,1.0996057E1,1.2000002E0,1.1554182E2,5.2723374E0,1.2146209E1],"tree_param":{"num_deleted":"0","num_feature":"15","num_nodes":"103","size_leaf_vector":"1"}},{"base_weights":[-3.949156E-8,-5.2662575E-1,5.2897656E-1,-5.8859354E-1,-3.187938E-2,5.92241E-1,1.41747E-1,-5.9740466E-1,2.8262657E-1,-3.4026876E-1,1.6496563E-1,4.2680648E-1,6.1536425E-1,-2.5633302E-1,2.5159964E-1,-6.1205274E-1,-2.8408393E-1,5.116504E-1,-3.3550254E-1,-2.4661149E-1,-6.5580875E-2,1.4310421E-2,3.4708148E-1,-7.397259E-2,4.4054028E-1,6.291403E-1,5.33904E-1,-5.681416E-1,1.0825469E-1,1.8565917E-1,5.0686824E-1,-6.1995214E-1,-2.7604818E-1,-5.275042E-1,4.714003E-2,5.8022916E-2,-4.0172767E-2,2.5383476E-2,-6.106588E-2,-1.0221743E-1,-4.8621505E-1,-1.4262861E-1,2.1336E-1,-5.5146754E-2,3.7895575E-1,1.6767551E-1,4.7217453E-1,3.9431632E-1,6.3179314E-2,5.393906E-1,-5.264873E-2,-6.869151E-2,3.9347664E-1,-6.42924E-2,2.0505837E-1,6.1329108E-2,3.5560733E-1,-5.0412823E-2,5.3608257E-1,-6.371897E-2,-5.4279465E-2,3.419856E-3,-4.5383383E-2,-6.15939E-2,-9.903984E-3,2.9515905E-2,-5.915255E-2,-3.13871E-2,1.818084E-2,-6.091964E-2,5.0807424E-2,-3.1908907E-2,2.3726923E-2,3.5809148E-2,-2.2513105E-2,5.0198264E-2,1.6477533E-2,-3.6495607E-2,3.158866E-2,3.600146E-2,5.394126E-2,5.2651227E-2,-6.953549E-2,5.4330915E-2,-4.643716E-2,-3.8539242E-2,5.901986E-2,3.625017E-2,-2.3862831E-2,-1.9406831E-3,6.3485205E-2,-3.9993525E-2,3.818428E-2,5.8180947E-2,-2.1901054E-2],"categories":[],"categories_nodes":[],"categories_segments":[],"categories_sizes":[],"default_left":[1,0,0,1,1,1,0,0,0,0,0,0,0,0,0,1,1,0,0,0,0,0,0,0,0,1,0,0,0,0,0,1,0,0,0,0,0,0,0,0,0,0,0,0,0,0,0,0,0,0,0,0,0,0,0,0,0,0,0,0,0,0,0,0,0,0,0,0,0,0,0,0,0,0,0,0,0,0,0,0,0,0,0,0,0,0,0,0,0,0,0,0,0,0,0],"id":8,"left_children":[1,3,5,7,9,11,13,15,17,19,21,23,25,27,29,31,33,35,37,39,-1,41,43,-1,45,47,49,51,53,55,57,59,61,63,65,-1,-1,-1,-1,67,69,71,73,-1,75,77,79,81,-1,83,-1,-1,85,-1,87,89,91,-1,93,-1,-1,-1,-1,-1,-1,-1,-1,-1,-1,-1,-1,-1,-1,-1,-1,-1,-1,-1,-1,-1,-1,-1,-1,-1,-1,-1,-1,-1,-1,-1,-1,-1,-1,-1,-1],"loss_changes":[1.802493E3,9.9388916E1,7.8995605E1,2.2288147E1,2.2029636E1,1.0350464E1,1.9945837E1,1.2919739E1,4.3519483E0,4.015684E0,6.0754833E0,5.8289566E0,2.3932495E0,1.129569E1,5.9120026E0,7.060791E0,1.0448792E1,1.6074982E0,1.5474646E0,3.7769141E0,0E0,3.8517835E0,3.081336E0,0E0,2.85672E0,1.0431519E0,2.3690262E0,6.3723583E0,3.5055494E0,6.0031776E0,2.4166641E0,3.1935425E0,3.5669718E0,2.7657738E0,8.994991E0,0E0,0E0,0E0,0E0,4.28196E0,5.3625965E0,4.7011504E0,3.528545E0,0E0,2.4850016E0,3.027123E0,2.1001892E0,4.087588E0,0E0,1.6566086E0,0E0,0E0,1.2248101E0,0E0,3.0104463E0,7.6932673E0,2.5365524E0,0E0,2.5829105E0,0E0,0E0,0E0,0E0,0E0,0E0,0E0,0E0,0E0,0E0,0E0,0E0,0E0,0E0,0E0,0E0,0E0,0E0,0E0,0E0,0E0,0E0,0E0,0E0,0E0,0E0,0E0,0E0,0E0,0E0,0E0,0E0,0E0,0E0,0E0,0E0],"parents":[2147483647,0,0,1,1,2,2,3,3,4,4,5,5,6,6,7,7,8,8,9,9,10,10,11,11,12,12,13,13,14,14,15,15,16,16,17,17,18,18,19,19,21,21,22,22,24,24,25,25,26,26,27,27,28,28,29,29,30,30,31,31,32,32,33,33,34,34,39,39,40,40,41,41,42,42,44,44,45,45,46,46,47,47,49,49,52,52,54,54,55,55,56,56,58,58],"right_children":[2,4,6,8,10,12,14,16,18,20,22,24,26,28,30,32,34,36,38,40,-1,42,44,-1,46,48,50,52,54,56,58,60,62,64,66,-1,-1,-1,-1,68,70,72,74,-1,76,78,80,82,-1,84,-1,-1,86,-1,88,90,92,-1,94,-1,-1,-1,-1,-1,-1,-1,-1,-1,-1,-1,-1,-1,-1,-1,-1,-1,-1,-1,-1,-1,-1,-1,-1,-1,-1,-1,-1,-1,-1,-1,-1,-1,-1,-1,-1],"split_conditions":[9.998408E-1,1.5956137E0,4E0,7.161486E-1,9.99723E-1,8.577029E-1,7.380934E-1,-1.2837902E0,1.8963907E1,2.9E1,8.7019247E-1,-1.1867127E0,2E0,-1.3692514E0,9.288674E-1,9.998153E-1,9.594997E-1,5.5E1,6E0,1.2E1,-6.5580875E-2,3.4021187E1,-1.4423045E0,-7.397259E-2,9.999159E-1,9.5570564E-1,3.8E1,8.7E1,-9.0361395E0,2.4202418E0,6.005063E-1,9.9964917E-1,9.9982226E-1,-6.137592E-1,-2.7498245E0,5.8022916E-2,-4.0172767E-2,2.5383476E-2,-6.106588E-2,9E0,2.8E1,2.5730586E0,9.799842E-1,-5.5146754E-2,3.4021187E1,8.3689016E-1,2.9893318E1,4.2178884E0,6.3179314E-2,9.538627E-1,-5.264873E-2,-6.869151E-2,1.29E2,-6.42924E-2,1.3E1,5.8624302E1,7.140397E-1,-5.0412823E-2,4.0719418E1,-6.371897E-2,-5.4279465E-2,3.419856E-3,-4.5383383E-2,-6.15939E-2,-9.903984E-3,2.9515905E-2,-5.915255E-2,-3.13871E-2,1.818084E-2,-6.091964E-2,5.0807424E-2,-3.1908907E-2,2.3726923E-2,3.5809148E-2,-2.2513105E-2,5.0198264E-2,1.6477533E-2,-3.6495607E-2,3.158866E-2,3.600146E-2,5.394126E-2,5.2651227E-2,-6.953549E-2,5.4330915E-2,-4.643716E-2,-3.8539242E-2,5.901986E-2,3.625017E-2,-2.3862831E-2,-1.9406831E-3,6.3485205E-2,-3.9993525E-2,3.818428E-2,5.8180947E-2,-2.1901054E-2],"split_indices":[12,13,3,14,12,14,13,4,1,3,9,9,3,4,9,12,10,3,0,0,0,1,4,0,12,10,0,0,7,13,14,12,12,7,7,0,0,0,0,6,3,13,10,0,1,11,1,13,0,11,0,0,6,0,3,1,11,0,1,0,0,0,0,0,0,0,0,0,0,0,0,0,0,0,0,0,0,0,0,0,0,0,0,0,0,0,0,0,0,0,0,0,0,0,0],"split_type":[0,0,0,0,0,0,0,0,0,0,0,0,0,0,0,0,0,0,0,0,0,0,0,0,0,0,0,0,0,0,0,0,0,0,0,0,0,0,0,0,0,0,0,0,0,0,0,0,0,0,0,0,0,0,0,0,0,0,0,0,0,0,0,0,0,0,0,0,0,0,0,0,0,0,0,0,0,0,0,0,0,0,0,0,0,0,0,0,0,0,0,0,0,0,0],"sum_hessian":[6.4684585E3,3.2414343E3,3.2270242E3,2.880462E3,3.6097244E2,2.7733872E3,4.5363702E2,2.851933E3,2.852884E1,1.4035506E2,2.206174E2,3.424928E2,2.4308943E3,9.7821526E1,3.558155E2,2.7236467E3,1.282864E2,2.094189E1,7.586948E0,1.096043E2,3.075075E1,1.2132772E2,9.928968E1,3.370203E0,3.391226E2,2.0735107E3,3.5738354E2,5.242633E1,4.5395195E1,2.8414343E2,7.167206E1,2.660259E3,6.338757E1,7.36025E1,5.468391E1,1.9818604E1,1.1232877E0,2.4394834E0,5.1474648E0,6.928012E1,4.0324177E1,6.799839E1,5.332933E1,2.842998E0,9.6446686E1,3.5885838E1,3.0323676E2,2.4834587E1,2.0486763E3,3.560327E2,1.350821E0,4.6917076E1,5.509256E0,4.538185E0,4.085701E1,1.6488115E2,1.1926229E2,1.5563514E0,7.011571E1,2.1685366E3,4.9172253E2,2.3385714E1,4.0001854E1,6.064737E1,1.29551325E1,3.9775402E1,1.4908506E1,3.9637516E1,2.9642609E1,3.6230247E1,4.09393E0,4.6540604E1,2.1457785E1,4.023307E1,1.3096259E1,6.040554E1,3.604114E1,7.493558E0,2.8392279E1,1.1603423E2,1.8720251E2,2.260859E1,2.2259972E0,3.5510516E2,9.2756116E-1,9.175166E-1,4.591739E0,3.0291111E1,1.0565899E1,1.4538165E2,1.9499496E1,3.5242782E0,1.15738014E2,6.6328476E1,3.7872326E0],"tree_param":{"num_deleted":"0","num_feature":"15","num_nodes":"95","size_leaf_vector":"1"}},{"base_weights":[3.012648E-9,-5.2565986E-1,4.983704E-1,-1.654153E-1,-5.940128E-1,5.749134E-1,9.764621E-2,-3.700958E-1,8.508837E-2,-6.189625E-1,-4.919513E-1,6.143886E-1,4.7375247E-1,1.8818821E-1,-4.3650874E-1,-4.4949827E-1,-7.59239E-2,1.2807012E-1,-5.658252E-1,-6.2383866E-1,-2.5008973E-1,-2.6984608E-1,-5.548213E-1,3.483705E-1,6.1691117E-2,3.2056224E-1,4.9982867E-1,9.1702536E-2,4.2340705E-1,-6.792253E-2,1.4404248E-1,-4.6907172E-1,2.69977E-1,-2.7413616E-1,3.9458779E-1,2.641274E-1,-1.2034054E-1,-6.590808E-2,1.9949127E-2,-6.292204E-2,-4.1229025E-1,-6.252604E-2,4.3961737E-1,4.025128E-1,-3.5250214E-1,-5.6836337E-1,4.5852296E-2,5.6072444E-1,-7.250579E-2,5.230897E-2,4.194948E-1,4.2932376E-1,5.4701604E-2,-8.855194E-2,2.4006161E-1,4.658753E-1,-8.7723516E-2,-1.17907956E-1,6.118049E-2,-5.154202E-2,-2.8578965E-2,5.839796E-2,-4.2534675E-2,1.303424E-3,-6.724689E-2,5.9522074E-2,-4.981852E-2,4.593793E-2,1.4078143E-2,-5.503738E-2,1.668145E-2,-5.6941506E-2,3.4617525E-2,-3.92757E-2,6.2472504E-2,-4.7745876E-2,6.7566715E-2,-3.3173037E-3,-5.4441597E-2,-6.118023E-2,-2.8155217E-2,-4.5884613E-2,6.440124E-2,-7.002932E-2,1.9475138E-2,-4.9310293E-2,4.419638E-2,4.4369813E-2,-6.728061E-2,-4.5657475E-4,-7.56092E-2,1.674143E-2,5.125863E-2,-4.116003E-2,4.7694962E-2,5.462822E-2,-6.498833E-2,-3.787799E-2,5.1907297E-2],"categories":[],"categories_nodes":[],"categories_segments":[],"categories_sizes":[],"default_left":[1,0,0,1,1,0,0,0,0,0,0,0,0,0,0,0,0,0,0,1,0,0,0,0,0,0,1,0,0,0,0,0,0,0,0,0,0,0,0,0,0,0,0,0,0,0,0,1,0,0,0,0,0,0,0,0,0,0,0,0,0,0,0,0,0,0,0,0,0,0,0,0,0,0,0,0,0,0,0,0,0,0,0,0,0,0,0,0,0,0,0,0,0,0,0,0,0,0,0],"id":9,"left_children":[1,3,5,7,9,11,13,15,17,19,21,23,25,27,29,31,33,35,37,39,41,43,45,47,-1,49,51,53,55,-1,57,59,61,63,65,67,69,-1,-1,-1,71,-1,73,75,77,79,-1,81,-1,83,85,87,-1,89,91,93,95,97,-1,-1,-1,-1,-1,-1,-1,-1,-1,-1,-1,-1,-1,-1,-1,-1,-1,-1,-1,-1,-1,-1,-1,-1,-1,-1,-1,-1,-1,-1,-1,-1,-1,-1,-1,-1,-1,-1,-1,-1,-1],"loss_changes":[1.6610983E3,7.588745E1,9.97785E1,2.5335972E1,6.2992554E0,1.0621277E1,2.538633E1,6.3143234E0,6.303953E0,3.5853882E0,7.0318832E0,1.1018677E0,2.921173E0,1.0130348E1,1.0825807E1,3.1377525E0,5.607925E0,7.120989E0,1.129322E0,2.0769653E0,7.7288E0,6.5557575E0,5.7482376E0,5.1318374E0,0E0,3.0299206E0,1.9522858E0,8.552509E0,2.8640308E0,0E0,2.9235306E0,1.6240425E0,1.6233678E0,4.822523E0,3.5008595E0,3.2067595E0,9.342766E0,0E0,0E0,0E0,6.6102962E0,0E0,1.8995721E0,3.4717956E0,6.313078E0,4.749771E0,0E0,1.8129878E0,0E0,3.5803952E0,1.937686E0,4.54784E0,0E0,8.112206E0,3.3840046E0,1.3647404E0,4.210956E0,2.8147254E0,0E0,0E0,0E0,0E0,0E0,0E0,0E0,0E0,0E0,0E0,0E0,0E0,0E0,0E0,0E0,0E0,0E0,0E0,0E0,0E0,0E0,0E0,0E0,0E0,0E0,0E0,0E0,0E0,0E0,0E0,0E0,0E0,0E0,0E0,0E0,0E0,0E0,0E0,0E0,0E0,0E0],"parents":[2147483647,0,0,1,1,2,2,3,3,4,4,5,5,6,6,7,7,8,8,9,9,10,10,11,11,12,12,13,13,14,14,15,15,16,16,17,17,18,18,19,19,20,20,21,21,22,22,23,23,25,25,26,26,27,27,28,28,30,30,31,31,32,32,33,33,34,34,35,35,36,36,40,40,42,42,43,43,44,44,45,45,47,47,49,49,50,50,51,51,53,53,54,54,55,55,56,56,57,57],"right_children":[2,4,6,8,10,12,14,16,18,20,22,24,26,28,30,32,34,36,38,40,42,44,46,48,-1,50,52,54,56,-1,58,60,62,64,66,68,70,-1,-1,-1,72,-1,74,76,78,80,-1,82,-1,84,86,88,-1,90,92,94,96,98,-1,-1,-1,-1,-1,-1,-1,-1,-1,-1,-1,-1,-1,-1,-1,-1,-1,-1,-1,-1,-1,-1,-1,-1,-1,-1,-1,-1,-1,-1,-1,-1,-1,-1,-1,-1,-1,-1,-1,-1,-1],"split_conditions":[9.9982476E-1,2E1,4E0,9.99723E-1,9.9964917E-1,2E0,3.2E1,-1.2739958E0,3.9E1,4.560869E1,9.828203E-1,9.999088E-1,9.9992436E-1,8.9242685E-1,1.5956137E0,3.4405391E0,1.6E1,9.8509496E-1,9.9981993E-1,5.2476174E-1,8.124854E-1,-7.436099E-1,2.0652022E0,9.9987924E-1,6.1691117E-2,-6.137592E-1,9.8608476E-1,-3.1600187E0,1.7E1,-6.792253E-2,1.5E1,3.3723907E1,-8.095894E0,7E0,2.6366226E1,-1.3624828E0,-1.3249975E0,-6.590808E-2,1.9949127E-2,-6.292204E-2,6.6E1,-6.252604E-2,8.8747066E-1,-8.55368E0,-1.4366281E0,9.997987E-1,4.5852296E-2,9.911208E-1,-7.250579E-2,8.304835E-1,6.9773644E-1,5.1E1,5.4701604E-2,1.9439543E1,5.250011E1,5.665025E-1,-6.8857354E-1,3.4405391E0,6.118049E-2,-5.154202E-2,-2.8578965E-2,5.839796E-2,-4.2534675E-2,1.303424E-3,-6.724689E-2,5.9522074E-2,-4.981852E-2,4.593793E-2,1.4078143E-2,-5.503738E-2,1.668145E-2,-5.6941506E-2,3.4617525E-2,-3.92757E-2,6.2472504E-2,-4.7745876E-2,6.7566715E-2,-3.3173037E-3,-5.4441597E-2,-6.118023E-2,-2.8155217E-2,-4.5884613E-2,6.440124E-2,-7.002932E-2,1.9475138E-2,-4.9310293E-2,4.419638E-2,4.4369813E-2,-6.728061E-2,-4.5657475E-4,-7.56092E-2,1.674143E-2,5.125863E-2,-4.116003E-2,4.7694962E-2,5.462822E-2,-6.498833E-2,-3.787799E-2,5.1907297E-2],"split_indices":[12,6,3,12,12,6,3,4,0,1,10,12,12,9,13,13,6,10,12,14,11,13,7,12,0,7,10,7,6,0,6,1,7,0,1,4,4,0,0,0,6,0,13,7,4,12,0,10,0,11,14,6,0,1,1,14,13,13,0,0,0,0,0,0,0,0,0,0,0,0,0,0,0,0,0,0,0,0,0,0,0,0,0,0,0,0,0,0,0,0,0,0,0,0,0,0,0,0,0],"split_type":[0,0,0,0,0,0,0,0,0,0,0,0,0,0,0,0,0,0,0,0,0,0,0,0,0,0,0,0,0,0,0,0,0,0,0,0,0,0,0,0,0,0,0,0,0,0,0,0,0,0,0,0,0,0,0,0,0,0,0,0,0,0,0,0,0,0,0,0,0,0,0,0,0,0,0,0,0,0,0,0,0,0,0,0,0,0,0,0,0,0,0,0,0,0,0,0,0,0,0],"sum_hessian":[6.338716E3,3.0848708E3,3.253845E3,4.9252237E2,2.5923484E3,2.731636E3,5.222088E2,2.7078943E2,2.2173293E2,2.0790454E3,5.1330304E2,1.9612422E3,7.703939E2,4.4707498E2,7.5133804E1,2.1281792E2,5.7971527E1,2.0875168E2,1.2981241E1,2.0512388E3,2.780656E1,1.1441027E2,3.9889276E2,1.9729752E1,1.9415125E3,1.1399555E2,6.563984E2,3.180161E2,1.2905885E2,5.286293E1,2.2270876E1,2.0752032E2,5.2975864E0,4.1082207E1,1.6889318E1,1.3483679E2,7.391489E1,1.1694992E1,1.286249E0,1.9984252E3,5.2813698E1,1.8070457E1,9.736103E0,1.2101541E1,1.0230873E2,3.940657E2,4.8270607E0,1.6870024E1,2.8597274E0,3.112624E1,8.2869316E1,2.672242E2,3.8917416E2,1.4375665E2,1.7425946E2,1.1924011E2,9.8187475E0,1.4755576E1,7.5153003E0,1.6418814E2,4.3332184E1,3.7598164E0,1.5377702E0,2.443415E1,1.6648056E1,1.406237E1,2.8269484E0,5.114768E1,8.368912E1,2.9227768E1,4.468712E1,4.39568E1,8.856899E0,1.5671806E0,8.168922E0,2.689459E0,9.412082E0,3.884562E1,6.346311E1,3.412488E2,5.2816868E1,9.334931E-1,1.593653E1,4.3303385E0,2.6795902E1,1.4879738E0,8.138134E1,2.6437357E2,2.8506324E0,1.2858557E2,1.5171085E1,1.3885815E2,3.5401314E1,1.0353723E0,1.18204735E2,4.6277733E0,5.1909747E0,1.0755906E1,3.99967E0],"tree_param":{"num_deleted":"0","num_feature":"15","num_nodes":"99","size_leaf_vector":"1"}},{"base_weights":[-4.3373514E-9,-4.9640402E-1,4.9609008E-1,-1.645885E-1,-5.8274543E-1,5.573726E-1,1.2763993E-1,-3.6704695E-1,7.331106E-2,-5.928023E-1,-2.837392E-1,5.979706E-1,4.51772E-1,-8.6091705E-2,3.1010088E-1,-4.8527968E-1,-1.8874222E-1,-4.6402123E-2,3.0314177E-1,-6.0006946E-1,-2.6760474E-1,-4.6229425E-1,2.1498017E-1,6.0699273E-2,4.947269E-1,2.8798595E-1,4.7545242E-1,3.024873E-2,-4.6165332E-1,2.5098142E-1,5.173848E-1,-5.061629E-1,3.5390624E-1,2.0544407E-1,-2.7779013E-1,1.2700532E-3,-5.589807E-1,-1.3982071E-1,3.5920793E-1,-6.1381E-2,-4.8824334E-1,-1.2549382E-2,-3.9823434E-1,-6.303104E-2,-1.8440744E-1,-5.3228248E-2,3.7724444E-1,5.2050245E-1,-7.587549E-2,-1.6431765E-1,3.8377395E-1,4.080256E-1,5.206225E-2,-6.6119246E-2,8.3924875E-2,-6.6057816E-2,4.193336E-1,3.0519298E-1,-2.1253122E-1,5.613133E-1,-1.3532144E-1,-6.251084E-2,-3.9371267E-2,5.69514E-2,-3.35609E-2,-3.5193067E-2,3.7407506E-2,-1.0766179E-2,-4.3892942E-2,-5.481334E-3,4.3557104E-2,-6.796323E-2,6.1788573E-3,-5.8545794E-2,1.4592971E-2,4.2919133E-2,9.469093E-3,-5.51546E-2,-8.19108E-3,-5.8263477E-2,1.9167697E-2,-5.082498E-2,2.6040375E-2,5.9765883E-2,-3.0544667E-2,5.0599437E-2,-4.7996674E-2,2.8257642E-2,5.5304207E-2,5.769316E-2,-7.58414E-2,4.1884538E-2,-7.69121E-2,-5.3302985E-2,4.1092385E-2,4.261029E-2,-7.803952E-2,1.9621482E-2,-2.687412E-2,-4.7102217E-2,6.211551E-2,1.980097E-2,4.7068704E-2,-8.179364E-2,1.907471E-2,-4.7653537E-2,5.907392E-2,4.207707E-2,-5.971699E-2],"categories":[],"categories_nodes":[],"categories_segments":[],"categories_sizes":[],"default_left":[1,0,0,1,1,0,0,0,0,1,0,0,0,0,0,0,0,1,0,0,0,1,0,0,0,0,1,0,0,0,0,1,0,0,0,1,0,0,0,0,0,0,0,0,0,0,0,0,0,0,0,1,0,0,0,0,0,0,0,0,0,0,0,0,0,0,0,0,0,0,0,0,0,0,0,0,0,0,0,0,0,0,0,0,0,0,0,0,0,0,0,0,0,0,0,0,0,0,0,0,0,0,0,0,0,0,0,0,0],"id":10,"left_children":[1,3,5,7,9,11,13,15,17,19,21,23,25,27,29,31,33,35,37,39,41,43,45,-1,47,49,51,53,55,57,59,61,63,65,67,69,71,73,75,-1,77,79,81,-1,83,-1,85,87,89,91,93,95,-1,-1,97,-1,99,101,103,105,107,-1,-1,-1,-1,-1,-1,-1,-1,-1,-1,-1,-1,-1,-1,-1,-1,-1,-1,-1,-1,-1,-1,-1,-1,-1,-1,-1,-1,-1,-1,-1,-1,-1,-1,-1,-1,-1,-1,-1,-1,-1,-1,-1,-1,-1,-1,-1,-1],"loss_changes":[1.528249E3,8.87724E1,7.0013245E1,3.0942968E1,7.232239E0,1.1137817E1,1.733894E1,7.2223434E0,8.156602E0,5.4641113E0,7.4013815E0,1.4871216E0,2.744873E0,8.981013E0,2.8075714E0,3.823845E0,4.970015E0,4.7768006E0,2.5707207E0,3.276245E0,1.7884696E0,2.7177706E0,2.904867E0,0E0,2.387127E0,4.239277E0,1.7600098E0,5.9056835E0,8.794224E0,4.8001814E0,1.5741405E0,2.4735832E0,1.0293481E0,2.609873E0,3.0943575E0,4.403799E0,1.2878046E0,1.6290816E0,1.6322079E0,0E0,6.630966E0,2.35454E0,2.7093992E0,0E0,2.4813824E0,0E0,2.3296015E0,1.0270767E0,3.9003086E0,6.5107102E0,2.2064896E0,6.01334E0,0E0,0E0,5.880409E0,0E0,2.0111814E0,2.9068146E0,5.117644E0,1.7825651E0,1.3044419E0,0E0,0E0,0E0,0E0,0E0,0E0,0E0,0E0,0E0,0E0,0E0,0E0,0E0,0E0,0E0,0E0,0E0,0E0,0E0,0E0,0E0,0E0,0E0,0E0,0E0,0E0,0E0,0E0,0E0,0E0,0E0,0E0,0E0,0E0,0E0,0E0,0E0,0E0,0E0,0E0,0E0,0E0,0E0,0E0,0E0,0E0,0E0,0E0],"parents":[2147483647,0,0,1,1,2,2,3,3,4,4,5,5,6,6,7,7,8,8,9,9,10,10,11,11,12,12,13,13,14,14,15,15,16,16,17,17,18,18,19,19,20,20,21,21,22,22,24,24,25,25,26,26,27,27,28,28,29,29,30,30,31,31,32,32,33,33,34,34,35,35,36,36,37,37,38,38,40,40,41,41,42,42,44,44,46,46,47,47,48,48,49,49,50,50,51,51,54,54,56,56,57,57,58,58,59,59,60,60],"right_children":[2,4,6,8,10,12,14,16,18,20,22,24,26,28,30,32,34,36,38,40,42,44,46,-1,48,50,52,54,56,58,60,62,64,66,68,70,72,74,76,-1,78,80,82,-1,84,-1,86,88,90,92,94,96,-1,-1,98,-1,100,102,104,106,108,-1,-1,-1,-1,-1,-1,-1,-1,-1,-1,-1,-1,-1,-1,-1,-1,-1,-1,-1,-1,-1,-1,-1,-1,-1,-1,-1,-1,-1,-1,-1,-1,-1,-1,-1,-1,-1,-1,-1,-1,-1,-1,-1,-1,-1,-1,-1,-1],"split_conditions":[9.998408E-1,2.5E1,4E0,9.99723E-1,5.2476174E-1,2E0,1.8054131E0,-1.3613424E0,2.5730586E0,9.998153E-1,5.6E1,2E0,9.9992436E-1,3E1,9.3898743E-1,3.4405391E0,-4.9914546E0,9.8634285E-1,9.99767E-1,-1.3601656E0,-1.1624453E0,9.7596055E-1,9.754142E-1,6.0699273E-2,1.4E1,-1.6602167E0,9.8608476E-1,-9.627229E0,1.5956137E0,9.054103E-1,3.9250473E1,9.542666E-1,-8.095894E0,9.995931E-1,1.2E1,9.841298E-1,5.8624302E1,-1.2078001E0,4E0,-6.1381E-2,6.5E1,7.9E1,9.643087E-1,-6.303104E-2,9.7612417E-1,-5.3228248E-2,7.549951E-1,7.7444285E-1,7.87293E-1,-1.1470385E0,6.9773644E-1,9.858408E-1,5.206225E-2,-6.6119246E-2,1.1200005E0,-6.6057816E-2,1.5E1,9.1086817E-1,1.6E1,9.868329E-1,9.594997E-1,-6.251084E-2,-3.9371267E-2,5.69514E-2,-3.35609E-2,-3.5193067E-2,3.7407506E-2,-1.0766179E-2,-4.3892942E-2,-5.481334E-3,4.3557104E-2,-6.796323E-2,6.1788573E-3,-5.8545794E-2,1.4592971E-2,4.2919133E-2,9.469093E-3,-5.51546E-2,-8.19108E-3,-5.8263477E-2,1.9167697E-2,-5.082498E-2,2.6040375E-2,5.9765883E-2,-3.0544667E-2,5.0599437E-2,-4.7996674E-2,2.8257642E-2,5.5304207E-2,5.769316E-2,-7.58414E-2,4.1884538E-2,-7.69121E-2,-5.3302985E-2,4.1092385E-2,4.261029E-2,-7.803952E-2,1.9621482E-2,-2.687412E-2,-4.7102217E-2,6.211551E-2,1.980097E-2,4.7068704E-2,-8.179364E-2,1.907471E-2,-4.7653537E-2,5.907392E-2,4.207707E-2,-5.971699E-2],"split_indices":[12,6,3,12,14,6,13,4,13,12,6,3,12,3,9,13,7,10,12,4,9,10,10,0,0,7,10,7,13,11,1,10,7,12,3,10,1,4,6,0,0,6,11,0,10,0,11,11,11,9,14,10,0,0,13,0,6,14,3,10,10,0,0,0,0,0,0,0,0,0,0,0,0,0,0,0,0,0,0,0,0,0,0,0,0,0,0,0,0,0,0,0,0,0,0,0,0,0,0,0,0,0,0,0,0,0,0,0,0],"split_type":[0,0,0,0,0,0,0,0,0,0,0,0,0,0,0,0,0,0,0,0,0,0,0,0,0,0,0,0,0,0,0,0,0,0,0,0,0,0,0,0,0,0,0,0,0,0,0,0,0,0,0,0,0,0,0,0,0,0,0,0,0,0,0,0,0,0,0,0,0,0,0,0,0,0,0,0,0,0,0,0,0,0,0,0,0,0,0,0,0,0,0,0,0,0,0,0,0,0,0,0,0,0,0,0,0,0,0,0,0],"sum_hessian":[6.203807E3,3.100922E3,3.102885E3,6.408811E2,2.4600408E3,2.6599548E3,4.4293008E2,3.4593713E2,2.94944E2,2.379041E3,8.0999886E1,1.9179424E3,7.4201245E2,2.0422849E2,2.3870158E2,2.0697304E2,1.389641E2,1.9445517E2,1.0048882E2,2.326212E3,5.2829132E1,5.9699047E1,2.1300838E1,1.7593223E3,1.586202E2,9.5392204E1,6.4662024E2,1.5662813E2,4.760037E1,1.8744983E2,5.125176E1,2.0233476E2,4.6382823E0,2.5366716E1,1.13597374E2,1.7882147E2,1.56337E1,1.1122142E1,8.9366684E1,2.0676611E3,2.585507E2,1.82642E1,3.456493E1,3.64141E1,2.3284948E1,3.3933542E0,1.7907486E1,1.518486E2,6.7715898E0,1.6546318E1,7.884589E1,2.6342703E2,3.831932E2,1.0467717E1,1.461604E2,3.9036255E1,8.564111E0,1.6812753E2,1.9322302E1,4.815111E1,3.1006472E0,9.61121E1,1.0622266E2,3.665985E0,9.722971E-1,5.6395073E0,1.972721E1,5.606887E1,5.7528503E1,1.591442E2,1.9677273E1,1.3010233E1,2.623468E0,3.9356E0,7.1865416E0,7.01773E1,1.9189388E1,2.2339116E2,3.515954E1,4.328519E0,1.3935682E1,2.9813389E1,4.7515416E0,2.5930216E0,2.0691925E1,1.5925286E1,1.9821986E0,1.9433918E1,1.3241469E2,3.540265E0,3.2313244E0,8.5803995E0,7.9659185E0,1.7318405E0,7.7114044E1,2.6011188E2,3.315164E0,1.1119819E2,3.4962215E1,1.3360662E0,7.228045E0,1.0337351E2,6.475402E1,7.3140955E0,1.2008207E1,9.0865195E-1,4.724246E1,1.4471443E0,1.653503E0],"tree_param":{"num_deleted":"0","num_feature":"15","num_nodes":"109","size_leaf_vector":"1"}},{"base_weights":[1.3580006E-8,-4.84782E-1,4.8287353E-1,-1.6581115E-1,-5.6960845E-1,1.4006707E-1,5.441191E-1,-3.6022717E-1,6.040849E-2,-5.7979244E-1,-2.7147216E-1,2.6483095E-1,-1.9439813E-1,5.812785E-1,4.1349274E-1,-4.7277883E-1,-1.9273393E-1,-5.5541314E-2,2.8608915E-1,-5.890452E-1,-3.176219E-1,-4.5091903E-1,2.0978495E-1,4.090757E-2,3.536256E-1,2.8503884E-4,-5.1860857E-1,5.938464E-2,5.0522524E-1,2.792707E-1,4.793388E-1,-4.9336377E-1,3.5667276E-1,3.3095586E-1,-2.53941E-1,2.311074E-1,-1.3993675E-1,4.960767E-3,3.7695006E-1,-6.129558E-2,-5.3888947E-1,-5.182531E-2,-4.6435902E-1,-6.1538488E-2,-1.846161E-1,3.6701176E-1,-5.1818635E-2,-6.9810234E-2,1.5197673E-1,2.7862132E-1,5.724411E-1,3.3627734E-1,-3.624197E-1,-6.394542E-2,3.6885552E-2,-6.39464E-2,5.1206326E-1,3.194031E-1,-1.1518291E-1,-6.485661E-2,4.875315E-2,-3.9257176E-2,-6.2393393E-2,5.721068E-2,-3.2689217E-2,-4.4308107E-2,4.8951115E-2,-5.503892E-3,-5.018688E-2,4.821136E-2,-2.350467E-2,-4.603696E-2,1.5777458E-3,-6.349484E-2,2.0064853E-2,-5.1526334E-2,4.0248852E-2,-5.769521E-2,-2.7747119E-2,1.1834039E-2,-5.897633E-2,1.7900655E-2,-5.4409094E-2,5.7809364E-2,-3.0347323E-2,-4.7076218E-2,4.872779E-2,2.3380477E-2,-7.372081E-2,5.0091118E-2,2.2629922E-2,5.8737416E-2,-3.4663882E-2,4.5808624E-2,-6.159999E-2,-8.014028E-2,-4.0434096E-3,5.7789516E-2,4.2115014E-2,3.346978E-2,-6.315421E-2,2.4059597E-2,-6.289402E-2],"categories":[],"categories_nodes":[],"categories_segments":[],"categories_sizes":[],"default_left":[1,0,0,1,1,0,0,0,0,1,0,0,0,0,0,0,0,0,0,0,0,1,0,0,1,0,0,0,0,0,0,0,0,0,0,0,0,0,0,0,1,0,0,0,0,0,0,0,1,0,0,0,0,0,0,0,0,0,0,0,0,0,0,0,0,0,0,0,0,0,0,0,0,0,0,0,0,0,0,0,0,0,0,0,0,0,0,0,0,0,0,0,0,0,0,0,0,0,0,0,0,0,0],"id":11,"left_children":[1,3,5,7,9,11,13,15,17,19,21,23,25,27,29,31,33,35,37,39,41,43,45,47,49,51,53,-1,55,57,59,61,63,65,67,69,71,73,75,-1,77,79,81,-1,83,85,-1,-1,87,89,91,93,95,-1,-1,-1,97,99,101,-1,-1,-1,-1,-1,-1,-1,-1,-1,-1,-1,-1,-1,-1,-1,-1,-1,-1,-1,-1,-1,-1,-1,-1,-1,-1,-1,-1,-1,-1,-1,-1,-1,-1,-1,-1,-1,-1,-1,-1,-1,-1,-1,-1],"loss_changes":[1.4191805E3,8.176196E1,6.3692444E1,2.8035011E1,7.097229E0,1.9319157E1,1.2266052E1,6.369232E0,7.741859E0,5.4154663E0,7.0727005E0,6.6804256E0,7.954344E0,1.6149292E0,4.9399185E0,3.6638145E0,4.5529165E0,4.771005E0,2.5619516E0,2.343567E0,3.1313372E0,2.4780798E0,2.780148E0,8.04648E0,3.7953758E0,9.839271E0,5.3066807E0,0E0,2.603836E0,3.065754E0,3.862259E0,2.3838425E0,1.000978E0,2.0607295E0,6.156045E0,5.3705273E0,7.588857E0,3.3242667E0,1.9354811E0,0E0,7.0844116E0,2.8070397E0,2.7648516E0,0E0,2.353023E0,2.163357E0,0E0,0E0,6.3511477E0,1.9965324E0,1.0348492E0,5.14382E0,5.4555345E0,0E0,0E0,0E0,1.4901733E0,2.7411575E0,3.515348E0,0E0,0E0,0E0,0E0,0E0,0E0,0E0,0E0,0E0,0E0,0E0,0E0,0E0,0E0,0E0,0E0,0E0,0E0,0E0,0E0,0E0,0E0,0E0,0E0,0E0,0E0,0E0,0E0,0E0,0E0,0E0,0E0,0E0,0E0,0E0,0E0,0E0,0E0,0E0,0E0,0E0,0E0,0E0,0E0],"parents":[2147483647,0,0,1,1,2,2,3,3,4,4,5,5,6,6,7,7,8,8,9,9,10,10,11,11,12,12,13,13,14,14,15,15,16,16,17,17,18,18,19,19,20,20,21,21,22,22,23,23,24,24,25,25,26,26,28,28,29,29,30,30,31,31,32,32,33,33,34,34,35,35,36,36,37,37,38,38,40,40,41,41,42,42,44,44,45,45,48,48,49,49,50,50,51,51,52,52,56,56,57,57,58,58],"right_children":[2,4,6,8,10,12,14,16,18,20,22,24,26,28,30,32,34,36,38,40,42,44,46,48,50,52,54,-1,56,58,60,62,64,66,68,70,72,74,76,-1,78,80,82,-1,84,86,-1,-1,88,90,92,94,96,-1,-1,-1,98,100,102,-1,-1,-1,-1,-1,-1,-1,-1,-1,-1,-1,-1,-1,-1,-1,-1,-1,-1,-1,-1,-1,-1,-1,-1,-1,-1,-1,-1,-1,-1,-1,-1,-1,-1,-1,-1,-1,-1,-1,-1,-1,-1,-1,-1],"split_conditions":[9.998408E-1,2.5E1,2.3068101E0,9.99723E-1,5.2476174E-1,1.3E1,2E0,-1.3613424E0,2.5730586E0,9.997987E-1,5.6E1,9.999159E-1,4.8E1,2E0,9.1086817E-1,3.4405391E0,-1.3565373E0,9.6264243E-1,9.9978364E-1,-1.4536843E0,-1.1624453E0,9.7596055E-1,1.6674988E1,-1.3483443E0,9.975444E-1,-6.10481E0,8.7E1,5.938464E-2,-1.3483443E0,5.513413E1,-5.046971E0,9.7647965E-1,-8.095894E0,9.995931E-1,1.2E1,-3.5944443E0,-3.1600187E0,-3.3682472E-1,7.4150556E-1,-6.129558E-2,9.613847E-1,-7.2046304E-3,-1.1015952E1,-6.1538488E-2,9.7612417E-1,9.9970835E-1,-5.1818635E-2,-6.9810234E-2,9.8560804E-1,9.742869E-1,6.3607502E1,9.998921E-1,8.887929E-1,-6.394542E-2,3.6885552E-2,-6.39464E-2,1.370522E0,2.5E1,9.809021E-1,-6.485661E-2,4.875315E-2,-3.9257176E-2,-6.2393393E-2,5.721068E-2,-3.2689217E-2,-4.4308107E-2,4.8951115E-2,-5.503892E-3,-5.018688E-2,4.821136E-2,-2.350467E-2,-4.603696E-2,1.5777458E-3,-6.349484E-2,2.0064853E-2,-5.1526334E-2,4.0248852E-2,-5.769521E-2,-2.7747119E-2,1.1834039E-2,-5.897633E-2,1.7900655E-2,-5.4409094E-2,5.7809364E-2,-3.0347323E-2,-4.7076218E-2,4.872779E-2,2.3380477E-2,-7.372081E-2,5.0091118E-2,2.2629922E-2,5.8737416E-2,-3.4663882E-2,4.5808624E-2,-6.159999E-2,-8.014028E-2,-4.0434096E-3,5.7789516E-2,4.2115014E-2,3.346978E-2,-6.315421E-2,2.4059597E-2,-6.289402E-2],"split_indices":[12,6,13,12,14,3,3,4,13,12,6,12,6,6,14,13,4,10,12,4,9,10,1,4,10,7,0,0,4,1,7,10,7,12,3,7,7,7,11,0,10,13,7,0,10,12,0,0,10,10,1,12,11,0,0,0,7,3,10,0,0,0,0,0,0,0,0,0,0,0,0,0,0,0,0,0,0,0,0,0,0,0,0,0,0,0,0,0,0,0,0,0,0,0,0,0,0,0,0,0,0,0,0],"split_type":[0,0,0,0,0,0,0,0,0,0,0,0,0,0,0,0,0,0,0,0,0,0,0,0,0,0,0,0,0,0,0,0,0,0,0,0,0,0,0,0,0,0,0,0,0,0,0,0,0,0,0,0,0,0,0,0,0,0,0,0,0,0,0,0,0,0,0,0,0,0,0,0,0,0,0,0,0,0,0,0,0,0,0,0,0,0,0,0,0,0,0,0,0,0,0,0,0,0,0,0,0,0,0],"sum_hessian":[6.060584E3,3.0243132E3,3.0362705E3,6.359438E2,2.3883696E3,4.607314E2,2.575539E3,3.4169467E2,2.942491E2,2.3085671E3,7.980243E1,3.3571103E2,1.250204E2,2.0024508E3,5.730884E2,2.032755E2,1.3841917E2,1.9487862E2,9.937049E1,2.228664E3,7.990314E1,5.8174046E1,2.1628384E1,9.573814E1,2.3997289E2,7.873838E1,4.628202E1,1.7126283E3,2.898225E2,1.9033885E2,3.8274954E2,1.9874825E2,4.527253E0,1.40238085E1,1.2439536E2,4.3930496E1,1.5094812E2,2.4529503E1,7.484099E1,1.5015934E3,7.270706E2,2.8902653E1,5.100048E1,3.5153053E1,2.3020992E1,1.8194574E1,3.4338098E0,1.1818337E1,8.39198E1,1.8040729E2,5.95656E1,4.091217E1,3.7826214E1,4.09811E1,5.300921E0,1.1716447E0,2.8865085E2,1.7293446E2,1.740439E1,2.1964414E0,3.805531E2,1.1442547E2,8.432277E1,3.566333E0,9.6092004E-1,2.079176E0,1.1944633E1,6.969998E1,5.4695377E1,2.8532564E1,1.5397934E1,4.8724678E1,1.0222344E2,5.2188597E0,1.9310642E1,1.5490006E0,7.3291985E1,6.3360974E2,9.346088E1,2.2549568E1,6.3530846E0,5.486245E0,4.5514236E1,2.58287E0,2.0438122E1,1.9181819E0,1.6276392E1,7.752275E1,6.3970428E0,3.273965E1,1.4766763E2,5.8968407E1,5.9719694E-1,3.6732544E1,4.179624E0,1.5375244E1,2.2450968E1,1.643125E2,1.2433835E2,1.7083484E2,2.0996203E0,1.0597366E1,6.807024E0],"tree_param":{"num_deleted":"0","num_feature":"15","num_nodes":"103","size_leaf_vector":"1"}},{"base_weights":[-1.6621073E-9,-4.731402E-1,4.684131E-1,-1.6683738E-1,-5.558366E-1,5.270397E-1,1.2561645E-1,-3.5832274E-1,5.155262E-2,-5.661674E-1,-2.5910255E-1,5.7000333E-1,4.1696164E-1,2.2063051E-1,-2.6545325E-1,-4.2018262E-1,-1.0997778E-1,-5.918903E-2,2.6708123E-1,-5.736255E-1,-2.4740228E-1,-4.383677E-1,2.0255676E-1,5.8220666E-2,4.3940395E-1,3.3169016E-1,4.7138184E-1,1.4880677E-1,4.4689205E-1,-3.998356E-1,4.515874E-1,-4.7303483E-1,-1.5578613E-1,-3.1209454E-1,2.0217057E-1,2.2065671E-1,-1.4104882E-1,-1.5645938E-1,3.22215E-1,-6.0297143E-2,-5.1351255E-1,-3.3561757E-1,1.1009547E-1,-6.0240936E-2,-1.8167935E-1,3.480266E-1,-5.049143E-2,5.1987555E-2,2.9683387E-1,3.5514954E-1,-8.2203105E-2,2.58982E-1,4.927231E-1,-2.2678031E-1,1.9793268E-1,-5.646518E-2,4.7962654E-1,4.443577E-1,-5.0494826E-1,-3.6095478E-2,5.40433E-2,-4.963494E-2,3.8579E-2,4.565786E-2,-3.0805564E-2,-8.0253035E-3,-6.183977E-2,-5.2270066E-2,3.7100203E-2,-5.8923382E-2,3.5132952E-2,-4.4445362E-2,3.1124978E-4,4.1493025E-2,-3.242309E-2,3.9674174E-2,4.825897E-3,-5.474701E-2,-2.841954E-2,-4.7154896E-4,-6.227796E-2,4.8030462E-2,-5.332012E-2,5.614928E-2,-2.9737154E-2,4.6724144E-2,-4.6737522E-2,-6.2808446E-3,4.709699E-2,3.690664E-2,-6.204151E-2,3.2168526E-2,-6.553222E-2,-5.487637E-2,4.9754433E-2,-5.2357614E-2,4.724167E-2,1.4052102E-2,4.6678543E-2,-4.8666842E-2,5.0783485E-2,5.851829E-2,-3.5676535E-2,-3.8333584E-3,-6.4114444E-2],"categories":[],"categories_nodes":[],"categories_segments":[],"categories_sizes":[],"default_left":[1,0,0,1,1,0,0,0,0,1,0,0,1,0,0,0,0,0,0,0,1,1,0,0,0,1,0,0,0,0,0,0,0,0,0,0,0,0,0,0,1,0,0,0,0,0,0,0,0,0,0,0,0,0,0,0,0,0,0,0,0,0,0,0,0,0,0,0,0,0,0,0,0,0,0,0,0,0,0,0,0,0,0,0,0,0,0,0,0,0,0,0,0,0,0,0,0,0,0,0,0,0,0,0,0],"id":12,"left_children":[1,3,5,7,9,11,13,15,17,19,21,23,25,27,29,31,33,35,37,39,41,43,45,-1,47,49,51,53,55,57,59,61,63,65,67,69,71,73,75,-1,77,79,81,-1,83,85,-1,-1,87,89,-1,91,93,95,97,-1,99,101,103,-1,-1,-1,-1,-1,-1,-1,-1,-1,-1,-1,-1,-1,-1,-1,-1,-1,-1,-1,-1,-1,-1,-1,-1,-1,-1,-1,-1,-1,-1,-1,-1,-1,-1,-1,-1,-1,-1,-1,-1,-1,-1,-1,-1,-1,-1],"loss_changes":[1.3115874E3,7.448346E1,5.969983E1,2.625214E1,6.958618E0,1.1771301E1,1.6245647E1,5.0906754E0,7.0317183E0,5.1811523E0,6.6950216E0,2.6506348E0,3.168869E0,5.63809E0,8.429497E0,3.6621246E0,4.355425E0,4.498081E0,2.384426E0,3.548523E0,1.7067206E0,2.3249521E0,2.5438848E0,0E0,1.6804314E0,7.9388123E0,1.8443756E0,4.988835E0,3.0549698E0,6.6688976E0,1.2043903E0,4.6428795E0,4.4325953E0,2.9108448E0,3.5405383E0,4.918636E0,6.6267486E0,1.3026801E0,1.7931976E0,0E0,5.483658E0,4.055911E0,2.9310932E0,0E0,2.2281759E0,2.1312518E0,0E0,0E0,3.7889972E0,3.9978638E0,0E0,2.6088145E0,2.252449E0,6.7757463E0,3.600132E0,0E0,2.4819088E0,1.1760223E0,4.109602E0,0E0,0E0,0E0,0E0,0E0,0E0,0E0,0E0,0E0,0E0,0E0,0E0,0E0,0E0,0E0,0E0,0E0,0E0,0E0,0E0,0E0,0E0,0E0,0E0,0E0,0E0,0E0,0E0,0E0,0E0,0E0,0E0,0E0,0E0,0E0,0E0,0E0,0E0,0E0,0E0,0E0,0E0,0E0,0E0,0E0,0E0],"parents":[2147483647,0,0,1,1,2,2,3,3,4,4,5,5,6,6,7,7,8,8,9,9,10,10,11,11,12,12,13,13,14,14,15,15,16,16,17,17,18,18,19,19,20,20,21,21,22,22,24,24,25,25,26,26,27,27,28,28,29,29,30,30,31,31,32,32,33,33,34,34,35,35,36,36,37,37,38,38,40,40,41,41,42,42,44,44,45,45,48,48,49,49,51,51,52,52,53,53,54,54,56,56,57,57,58,58],"right_children":[2,4,6,8,10,12,14,16,18,20,22,24,26,28,30,32,34,36,38,40,42,44,46,-1,48,50,52,54,56,58,60,62,64,66,68,70,72,74,76,-1,78,80,82,-1,84,86,-1,-1,88,90,-1,92,94,96,98,-1,100,102,104,-1,-1,-1,-1,-1,-1,-1,-1,-1,-1,-1,-1,-1,-1,-1,-1,-1,-1,-1,-1,-1,-1,-1,-1,-1,-1,-1,-1,-1,-1,-1,-1,-1,-1,-1,-1,-1,-1,-1,-1,-1,-1,-1,-1,-1,-1],"split_conditions":[9.998408E-1,2.5E1,4E0,9.99723E-1,5.2476174E-1,2E0,4.2E1,-1.280879E0,2.5730586E0,9.998153E-1,5.6E1,2E0,9.843298E-1,9.149907E-1,8.4E1,3.6269936E1,1.6E1,9.6264243E-1,9.99767E-1,-1.4536843E0,4.3602914E-1,9.7596055E-1,1.6674988E1,5.8220666E-2,-1.1158233E0,9.8302615E-1,-1.2837902E0,-1.4196949E0,9.9985784E-1,7.6191765E-1,9.7813857E-1,3.4405391E0,9.101513E-1,7E0,7.6818264E-1,7.8820354E-1,-3.1600187E0,8.7837243E-1,4E0,-6.0297143E-2,9.613847E-1,2.5E1,-1.4163346E0,-6.0240936E-2,9.7612417E-1,7.549951E-1,-5.049143E-2,5.1987555E-2,4.352385E0,5.1E1,-8.2203105E-2,4.2344204E1,9.9593055E-1,3.0256562E0,5.0226326E1,-5.646518E-2,6.005063E-1,-8.004096E0,8E0,-3.6095478E-2,5.40433E-2,-4.963494E-2,3.8579E-2,4.565786E-2,-3.0805564E-2,-8.0253035E-3,-6.183977E-2,-5.2270066E-2,3.7100203E-2,-5.8923382E-2,3.5132952E-2,-4.4445362E-2,3.1124978E-4,4.1493025E-2,-3.242309E-2,3.9674174E-2,4.825897E-3,-5.474701E-2,-2.841954E-2,-4.7154896E-4,-6.227796E-2,4.8030462E-2,-5.332012E-2,5.614928E-2,-2.9737154E-2,4.6724144E-2,-4.6737522E-2,-6.2808446E-3,4.709699E-2,3.690664E-2,-6.204151E-2,3.2168526E-2,-6.553222E-2,-5.487637E-2,4.9754433E-2,-5.2357614E-2,4.724167E-2,1.4052102E-2,4.6678543E-2,-4.8666842E-2,5.0783485E-2,5.851829E-2,-3.5676535E-2,-3.8333584E-3,-6.4114444E-2],"split_indices":[12,6,3,12,14,6,6,4,13,12,6,3,10,9,0,1,6,10,12,4,14,10,1,0,4,10,4,4,12,11,10,13,13,0,11,9,7,10,6,0,10,3,4,0,10,11,0,0,7,6,0,1,13,13,1,0,14,7,3,0,0,0,0,0,0,0,0,0,0,0,0,0,0,0,0,0,0,0,0,0,0,0,0,0,0,0,0,0,0,0,0,0,0,0,0,0,0,0,0,0,0,0,0,0,0],"split_type":[0,0,0,0,0,0,0,0,0,0,0,0,0,0,0,0,0,0,0,0,0,0,0,0,0,0,0,0,0,0,0,0,0,0,0,0,0,0,0,0,0,0,0,0,0,0,0,0,0,0,0,0,0,0,0,0,0,0,0,0,0,0,0,0,0,0,0,0,0,0,0,0,0,0,0,0,0,0,0,0,0,0,0,0,0,0,0,0,0,0,0,0,0,0,0,0,0,0,0,0,0,0,0,0,0],"sum_hessian":[5.9160464E3,2.9431672E3,2.9728792E3,6.263224E2,2.316845E3,2.5382405E3,4.346387E2,3.3337604E2,2.9294635E2,2.2380205E3,7.882448E1,1.8226716E3,7.155688E2,3.5003116E2,8.460753E1,2.6634146E2,6.703456E1,1.9399457E2,9.8951775E1,2.1860737E3,5.194678E1,5.6813786E1,2.201069E1,1.6637507E3,1.589209E2,2.8153085E2,4.3403793E2,2.669493E2,8.308186E1,7.162626E1,1.2981269E1,2.2131253E2,4.5028927E1,4.0688705E1,2.6345858E1,4.352037E1,1.504742E2,1.1185598E1,8.776618E1,1.4628899E3,7.231838E2,4.1714592E1,1.0232188E1,3.3840508E1,2.2973278E1,1.8678165E1,3.3325257E0,9.989191E1,5.9028984E1,2.7659875E2,4.932099E0,4.0828247E1,3.932097E2,3.0459326E1,2.3648997E2,2.0949616E0,8.09869E1,7.5735135E0,6.405275E1,9.77625E-1,1.2003644E1,2.1587424E2,5.438293E0,8.569096E0,3.645983E1,2.387766E1,1.6811045E1,4.5810986E0,2.176476E1,5.558762E0,3.796161E1,4.779689E1,1.0267731E2,2.2044802E0,8.981118E0,6.8644104E1,1.9122072E1,6.28698E2,9.448576E1,1.9853483E1,2.1861109E1,6.655438E0,3.5767505E0,2.575527E0,2.039775E1,1.6668192E1,2.0099723E0,1.9465757E1,3.956323E1,2.733214E2,3.2773507E0,3.8814503E1,2.013746E0,1.2919713E0,3.919177E2,2.155908E1,8.900246E0,1.9613036E2,4.035962E1,1.8361363E0,7.9150764E1,6.6704903E0,9.030234E-1,1.47613E1,4.9291447E1],"tree_param":{"num_deleted":"0","num_feature":"15","num_nodes":"105","size_leaf_vector":"1"}},{"base_weights":[2.6475563E-8,-4.637076E-1,4.5788014E-1,-5.33849E-1,-1.12496465E-1,5.173446E-1,1.14874214E-1,-3.1573725E-1,-5.562612E-1,-3.5423946E-1,4.122347E-2,5.6093544E-1,4.0697104E-1,-2.462874E-1,2.0272398E-1,-4.969868E-1,-1.1361824E-1,-5.640116E-1,-2.3341237E-1,-1.5935382E-1,-5.0848496E-1,8.491633E-2,-5.587588E-1,5.717967E-2,4.445595E-1,2.1297456E-1,4.3369704E-1,-3.7628525E-1,4.3876257E-2,1.3969918E-1,4.5481327E-1,-5.3049076E-1,3.0597946E-2,-3.499137E-1,9.466831E-2,-5.9306562E-2,-5.044555E-1,-3.2270303E-1,1.316724E-1,-4.018233E-1,2.4784078E-1,-6.13905E-2,-3.2469562E-1,-6.2675305E-2,1.1813213E-1,2.6163045E-2,-6.323346E-2,4.5219675E-2,-4.323423E-2,3.6658078E-1,-2.8265485E-1,2.3830359E-1,4.5333102E-2,4.0762108E-2,-4.8936197E-1,8.706726E-2,4.4216904E-1,4.8248053E-1,-4.85843E-2,-5.691889E-2,-1.0322954E-2,-4.934044E-2,1.2881259E-2,-2.0935569E-2,3.5340946E-2,-5.3833146E-2,-2.8013328E-2,-9.2035125E-4,-6.096759E-2,4.723368E-2,-5.1296473E-2,-5.9969544E-2,-5.150777E-3,-1.5178156E-2,4.564927E-2,2.78593E-2,-4.124576E-2,2.8014926E-3,3.1614687E-2,3.9111406E-2,-4.5152865E-2,6.3363154E-4,-7.1642056E-2,-6.9419876E-2,3.6130086E-2,-4.9279835E-3,-6.260873E-2,-5.289602E-2,1.5439798E-2,-1.933872E-2,5.411858E-2,5.167025E-2,-1.7616916E-2],"categories":[],"categories_nodes":[],"categories_segments":[],"categories_sizes":[],"default_left":[1,1,0,0,1,0,0,1,1,0,0,0,1,0,0,0,0,0,1,0,0,0,0,0,0,0,0,0,0,0,0,0,0,0,0,0,1,0,0,1,0,0,0,0,0,0,0,0,0,0,0,0,0,0,0,0,0,0,0,0,0,0,0,0,0,0,0,0,0,0,0,0,0,0,0,0,0,0,0,0,0,0,0,0,0,0,0,0,0,0,0,0,0],"id":13,"left_children":[1,3,5,7,9,11,13,15,17,19,21,23,25,27,29,31,33,35,37,39,41,43,45,-1,47,49,51,53,-1,55,57,59,-1,61,63,-1,65,67,69,71,73,-1,75,-1,77,-1,-1,-1,-1,79,81,83,-1,-1,85,87,89,91,-1,-1,-1,-1,-1,-1,-1,-1,-1,-1,-1,-1,-1,-1,-1,-1,-1,-1,-1,-1,-1,-1,-1,-1,-1,-1,-1,-1,-1,-1,-1,-1,-1,-1,-1],"loss_changes":[1.223673E3,7.047864E1,5.9088013E1,1.1490295E1,1.7774908E1,1.166095E1,1.36845665E1,8.174696E0,5.2800903E0,5.506588E0,7.7297764E0,1.9816895E0,3.5539322E0,7.6929126E0,5.4369364E0,3.3411942E0,5.3251534E0,3.354309E0,1.7509713E0,8.351452E0,1.8021641E0,6.551676E0,1.3741212E0,0E0,1.2368221E0,6.7362494E0,2.2595978E0,6.5449677E0,0E0,4.3936005E0,2.0249538E0,1.8227615E0,0E0,3.5385814E0,4.6314464E0,0E0,5.160919E0,3.8089561E0,2.6600025E0,3.6267538E0,2.7218168E0,0E0,2.2209654E0,0E0,4.6779943E0,0E0,0E0,0E0,0E0,1.520216E0,2.659163E0,6.9559155E0,0E0,0E0,3.7608442E0,9.969369E0,2.6860209E0,1.6087999E0,0E0,0E0,0E0,0E0,0E0,0E0,0E0,0E0,0E0,0E0,0E0,0E0,0E0,0E0,0E0,0E0,0E0,0E0,0E0,0E0,0E0,0E0,0E0,0E0,0E0,0E0,0E0,0E0,0E0,0E0,0E0,0E0,0E0,0E0,0E0],"parents":[2147483647,0,0,1,1,2,2,3,3,4,4,5,5,6,6,7,7,8,8,9,9,10,10,11,11,12,12,13,13,14,14,15,15,16,16,17,17,18,18,19,19,20,20,21,21,22,22,24,24,25,25,26,26,27,27,29,29,30,30,31,31,33,33,34,34,36,36,37,37,38,38,39,39,40,40,42,42,44,44,49,49,50,50,51,51,54,54,55,55,56,56,57,57],"right_children":[2,4,6,8,10,12,14,16,18,20,22,24,26,28,30,32,34,36,38,40,42,44,46,-1,48,50,52,54,-1,56,58,60,-1,62,64,-1,66,68,70,72,74,-1,76,-1,78,-1,-1,-1,-1,80,82,84,-1,-1,86,88,90,92,-1,-1,-1,-1,-1,-1,-1,-1,-1,-1,-1,-1,-1,-1,-1,-1,-1,-1,-1,-1,-1,-1,-1,-1,-1,-1,-1,-1,-1,-1,-1,-1,-1,-1,-1],"split_conditions":[9.998408E-1,5.193262E-1,4E0,2.5E1,9.997048E-1,2E0,6.6901827E-1,9.9958533E-1,9.998153E-1,1.8963907E1,3.9E1,2E0,9.4568557E-1,8.4E1,9.288674E-1,5.8624302E1,1.1E1,-1.4536843E0,4.3602914E-1,1.5431698E1,3.666404E1,-4.5117116E0,-6.2291975E0,5.717967E-2,2.5E1,-1.0976124E0,9.999159E-1,7.6191765E-1,4.3876257E-2,5.0226326E1,3.2E1,8.4E1,3.0597946E-2,2.0917554E0,2.6105762E1,-5.9306562E-2,9.613847E-1,2.5E1,-1.4163346E0,9.996547E-1,9.754142E-1,-6.13905E-2,3.712545E1,-6.2675305E-2,8.7925404E-1,2.6163045E-2,-6.323346E-2,4.5219675E-2,-4.323423E-2,5.1E1,-1.2705669E0,-3.3682472E-1,4.5333102E-2,4.0762108E-2,8E0,7.875123E-1,9.9985784E-1,4.0719418E1,-4.85843E-2,-5.691889E-2,-1.0322954E-2,-4.934044E-2,1.2881259E-2,-2.0935569E-2,3.5340946E-2,-5.3833146E-2,-2.8013328E-2,-9.2035125E-4,-6.096759E-2,4.723368E-2,-5.1296473E-2,-5.9969544E-2,-5.150777E-3,-1.5178156E-2,4.564927E-2,2.78593E-2,-4.124576E-2,2.8014926E-3,3.1614687E-2,3.9111406E-2,-4.5152865E-2,6.3363154E-4,-7.1642056E-2,-6.9419876E-2,3.6130086E-2,-4.9279835E-3,-6.260873E-2,-5.289602E-2,1.5439798E-2,-1.933872E-2,5.411858E-2,5.167025E-2,-1.7616916E-2],"split_indices":[12,14,3,6,12,6,13,12,12,1,0,3,10,0,9,1,0,4,14,1,1,7,7,0,0,9,12,11,0,1,3,3,0,13,1,0,10,3,4,12,10,0,1,0,9,0,0,0,0,6,4,7,0,0,3,11,12,1,0,0,0,0,0,0,0,0,0,0,0,0,0,0,0,0,0,0,0,0,0,0,0,0,0,0,0,0,0,0,0,0,0,0,0],"split_type":[0,0,0,0,0,0,0,0,0,0,0,0,0,0,0,0,0,0,0,0,0,0,0,0,0,0,0,0,0,0,0,0,0,0,0,0,0,0,0,0,0,0,0,0,0,0,0,0,0,0,0,0,0,0,0,0,0,0,0,0,0,0,0,0,0,0,0,0,0,0,0,0,0,0,0,0,0,0,0,0,0,0,0,0,0,0,0,0,0,0,0,0,0],"sum_hessian":[5.7612754E3,2.8624163E3,2.8988591E3,2.385484E3,4.769322E2,2.4701235E3,4.2873563E2,2.2368658E2,2.1617974E3,1.8488069E2,2.9205148E2,1.7678483E3,7.022753E2,8.352992E1,3.452057E2,1.1716256E2,1.0652403E2,2.110388E3,5.140954E1,8.257818E1,1.0230252E2,2.7302713E2,1.902435E1,1.6133611E3,1.5448717E2,8.612045E1,6.161549E2,7.058597E1,1.2943958E1,2.774057E2,6.7799995E1,1.1279547E2,4.3670826E0,4.9587917E1,5.6936115E1,1.4123992E3,6.979887E2,4.1400173E1,1.0009365E1,5.176638E1,3.0811796E1,6.3524895E1,3.8777622E1,1.1377963E1,2.6164917E2,1.3553944E0,1.7668955E1,1.5363344E2,8.537224E-1,6.594352E1,2.0176939E1,5.7460148E1,5.5869476E2,8.569934E0,6.2016033E1,2.373866E2,4.0019108E1,6.633596E1,1.4640396E0,1.0312317E2,9.672301E0,3.8128757E1,1.145916E1,2.6265133E1,3.0670982E1,6.0519543E2,9.279323E1,2.0278872E1,2.11213E1,6.7235346E0,3.2858303E0,3.2626034E1,1.9140347E1,1.06626425E1,2.0149155E1,4.6485286E0,3.4129093E1,1.8059927E2,8.10499E1,6.453033E1,1.413192E0,1.2700666E1,7.4762735E0,6.154659E0,5.130549E1,1.5022632E1,4.6993404E1,2.2713976E1,2.146726E2,5.265906E0,3.47532E1,6.3264397E1,3.0715613E0],"tree_param":{"num_deleted":"0","num_feature":"15","num_nodes":"93","size_leaf_vector":"1"}},{"base_weights":[2.5711113E-8,-4.5454562E-1,4.4729874E-1,-1.6334845E-1,-5.3637755E-1,5.2015436E-1,1.7169867E-1,-3.4123075E-1,3.4444746E-2,-5.4720366E-1,-2.3800497E-1,5.540896E-1,4.1639647E-1,-4.537608E-2,3.061294E-1,-4.0042198E-1,-1.0443899E-1,-6.856823E-2,2.3663536E-1,-5.550599E-1,-2.2784828E-1,-4.173411E-1,1.9581261E-1,5.624052E-1,4.4049233E-1,-6.312659E-2,4.216913E-1,-2.8376958E-1,9.915915E-2,-5.913183E-2,3.1390157E-1,-4.520565E-1,-1.4968698E-1,-2.881707E-1,1.7941327E-1,2.0150347E-1,-1.4562224E-1,-6.725852E-2,3.1446248E-1,-5.8452483E-2,-4.9543118E-1,-5.9034344E-2,-1.2924133E-1,-5.8379438E-2,-1.6612951E-1,-4.8827596E-2,3.234475E-1,1.9929719E-1,5.6469705E-2,4.5446727E-1,-5.2239265E-2,3.1133512E-1,4.520901E-1,-3.9678973E-1,4.4318566E-1,1.5585499E-1,-5.7321604E-2,2.7202877E-1,4.7678586E-2,-4.7497805E-2,3.734215E-2,-5.724066E-2,6.0708635E-3,-7.1449564E-3,-5.8904268E-2,-5.0038822E-2,3.354857E-2,4.2688597E-2,-2.1518247E-2,-4.980523E-2,-3.7561853E-3,3.7864313E-2,-6.897137E-2,3.3222135E-2,-4.4080332E-2,-5.3675503E-2,-3.151309E-2,3.357226E-2,-3.4006566E-2,5.4697264E-2,-2.7821038E-2,4.3578666E-2,-4.6082E-2,4.1123416E-2,-6.231773E-2,3.785887E-2,5.9913594E-2,3.4461707E-2,-7.215345E-2,-1.7561147E-2,4.566646E-2,2.8536955E-2,-4.599803E-2,-4.1238084E-2,6.219961E-2,2.5257502E-2,-1.9482987E-2,2.9251678E-2,-7.02567E-2],"categories":[],"categories_nodes":[],"categories_segments":[],"categories_sizes":[],"default_left":[1,0,0,1,1,0,0,0,0,1,0,0,0,0,0,0,0,0,0,0,0,1,0,0,0,0,0,0,0,0,0,0,1,0,0,0,0,0,0,0,0,0,0,0,0,0,0,0,0,0,0,0,0,0,0,0,0,0,0,0,0,0,0,0,0,0,0,0,0,0,0,0,0,0,0,0,0,0,0,0,0,0,0,0,0,0,0,0,0,0,0,0,0,0,0,0,0,0,0],"id":14,"left_children":[1,3,5,7,9,11,13,15,17,19,21,23,25,27,29,31,33,35,37,39,41,43,45,47,49,-1,51,53,55,-1,57,59,61,63,65,67,69,71,73,-1,75,-1,77,-1,79,-1,81,83,-1,85,-1,87,89,91,93,95,-1,97,-1,-1,-1,-1,-1,-1,-1,-1,-1,-1,-1,-1,-1,-1,-1,-1,-1,-1,-1,-1,-1,-1,-1,-1,-1,-1,-1,-1,-1,-1,-1,-1,-1,-1,-1,-1,-1,-1,-1,-1,-1],"loss_changes":[1.1396743E3,6.616174E1,5.6638306E1,2.1520676E1,6.878784E0,7.635376E0,1.7294977E1,4.4707108E0,6.0641727E0,5.124939E0,6.13008E0,1.3395996E0,3.342743E0,7.8617954E0,2.7374039E0,3.2624245E0,3.4801257E0,4.0486174E0,2.3444467E0,3.2984009E0,1.7806745E0,2.2163935E0,2.2027373E0,1.187439E0,1.8418407E0,0E0,1.7124557E0,7.2475595E0,5.5131392E0,0E0,2.3485298E0,4.2037888E0,4.074259E0,2.5850909E0,2.9738936E0,4.1575994E0,5.7261543E0,6.0486403E0,1.1977291E0,0E0,4.9117584E0,0E0,4.2431755E0,0E0,2.0261176E0,0E0,1.9926975E0,2.2335873E0,0E0,1.0691738E0,0E0,4.460331E0,1.3174973E0,3.3650045E0,2.100493E0,4.52645E0,0E0,6.0235825E0,0E0,0E0,0E0,0E0,0E0,0E0,0E0,0E0,0E0,0E0,0E0,0E0,0E0,0E0,0E0,0E0,0E0,0E0,0E0,0E0,0E0,0E0,0E0,0E0,0E0,0E0,0E0,0E0,0E0,0E0,0E0,0E0,0E0,0E0,0E0,0E0,0E0,0E0,0E0,0E0,0E0],"parents":[2147483647,0,0,1,1,2,2,3,3,4,4,5,5,6,6,7,7,8,8,9,9,10,10,11,11,12,12,13,13,14,14,15,15,16,16,17,17,18,18,19,19,20,20,21,21,22,22,23,23,24,24,26,26,27,27,28,28,30,30,31,31,32,32,33,33,34,34,35,35,36,36,37,37,38,38,40,40,42,42,44,44,46,46,47,47,49,49,51,51,52,52,53,53,54,54,55,55,57,57],"right_children":[2,4,6,8,10,12,14,16,18,20,22,24,26,28,30,32,34,36,38,40,42,44,46,48,50,-1,52,54,56,-1,58,60,62,64,66,68,70,72,74,-1,76,-1,78,-1,80,-1,82,84,-1,86,-1,88,90,92,94,96,-1,98,-1,-1,-1,-1,-1,-1,-1,-1,-1,-1,-1,-1,-1,-1,-1,-1,-1,-1,-1,-1,-1,-1,-1,-1,-1,-1,-1,-1,-1,-1,-1,-1,-1,-1,-1,-1,-1,-1,-1,-1,-1],"split_conditions":[9.998408E-1,2.5E1,3E0,9.99723E-1,5.2476174E-1,2E0,1.8054131E0,-1.280879E0,2.5730586E0,9.998153E-1,5.6E1,2E0,-1.4086595E0,9.998831E-1,5.309595E-1,3.6269936E1,1.6E1,9.6264243E-1,-1.0873815E0,-1.4536843E0,2E1,9.7596055E-1,9.754142E-1,9.195187E0,1.4E1,-6.312659E-2,2.3068101E0,9.165503E-1,2.9E1,-5.913183E-2,9.3898743E-1,3.4405391E0,9.99503E-1,7E0,7.6818264E-1,-3.5944443E0,9E0,-4.009941E0,9.851E-1,-5.8452483E-2,2.7E1,-5.9034344E-2,2.5E1,-5.8379438E-2,9.7612417E-1,-4.8827596E-2,7.549951E-1,4.2178884E0,5.6469705E-2,8.943453E-1,-5.2239265E-2,2.1946964E0,9.9987197E-1,7.140397E-1,-4.3795214E0,1.1200005E0,-5.7321604E-2,9.271743E-1,4.7678586E-2,-4.7497805E-2,3.734215E-2,-5.724066E-2,6.0708635E-3,-7.1449564E-3,-5.8904268E-2,-5.0038822E-2,3.354857E-2,4.2688597E-2,-2.1518247E-2,-4.980523E-2,-3.7561853E-3,3.7864313E-2,-6.897137E-2,3.3222135E-2,-4.4080332E-2,-5.3675503E-2,-3.151309E-2,3.357226E-2,-3.4006566E-2,5.4697264E-2,-2.7821038E-2,4.3578666E-2,-4.6082E-2,4.1123416E-2,-6.231773E-2,3.785887E-2,5.9913594E-2,3.4461707E-2,-7.215345E-2,-1.7561147E-2,4.566646E-2,2.8536955E-2,-4.599803E-2,-4.1238084E-2,6.219961E-2,2.5257502E-2,-1.9482987E-2,2.9251678E-2,-7.02567E-2],"split_indices":[12,6,3,12,14,6,13,4,13,12,6,3,4,12,14,1,6,10,7,4,3,10,10,1,0,0,13,9,3,0,9,13,12,0,11,7,6,7,9,0,0,0,3,0,10,0,11,13,0,11,0,13,12,11,7,13,0,11,0,0,0,0,0,0,0,0,0,0,0,0,0,0,0,0,0,0,0,0,0,0,0,0,0,0,0,0,0,0,0,0,0,0,0,0,0,0,0,0,0],"split_type":[0,0,0,0,0,0,0,0,0,0,0,0,0,0,0,0,0,0,0,0,0,0,0,0,0,0,0,0,0,0,0,0,0,0,0,0,0,0,0,0,0,0,0,0,0,0,0,0,0,0,0,0,0,0,0,0,0,0,0,0,0,0,0,0,0,0,0,0,0,0,0,0,0,0,0,0,0,0,0,0,0,0,0,0,0,0,0,0,0,0,0,0,0,0,0,0,0,0,0],"sum_hessian":[5.603387E3,2.779172E3,2.8242153E3,6.1032837E2,2.1688438E3,2.2330225E3,5.911929E2,3.2095615E2,2.893722E2,2.0921006E3,7.674325E1,1.6794108E3,5.536116E2,2.2635078E2,3.648421E2,2.5621793E2,6.4738235E1,1.9214049E2,9.723172E1,2.0411494E3,5.095119E1,5.432414E1,2.241911E1,1.5611777E3,1.1823313E2,2.189366E0,5.514222E2,8.507178E1,1.41279E2,2.48787E0,3.6235425E2,2.1179872E2,4.44192E1,3.9290855E1,2.5447376E1,4.22923E1,1.4984819E2,1.985176E1,7.737996E1,1.3602124E3,6.8093695E2,9.829502E0,4.112169E1,3.1877882E1,2.2446257E1,3.0808759E0,1.9338234E1,1.0343493E1,1.5508342E3,1.1706215E2,1.1709805E0,1.2151831E2,4.2990387E2,7.401829E1,1.105349E1,1.3100098E2,1.0278028E1,2.903769E2,7.197734E1,2.064896E2,5.309127E0,1.4189509E1,3.022969E1,2.3558735E1,1.5732122E1,4.3395514E0,2.1107824E1,2.743073E1,1.4861569E1,3.431702E1,1.1553116E2,1.1794415E1,8.057346E0,7.614954E1,1.2304088E0,5.523617E2,1.2857526E2,1.2643833E1,2.8477856E1,2.521748E0,1.9924507E1,1.7303942E1,2.0342922E0,8.621811E0,1.7216825E0,7.9159836E1,3.7902313E1,1.1837044E2,3.1478753E0,2.8398213E0,4.2706406E2,5.977164E0,6.804112E1,1.6849841E0,9.3685055E0,1.0290047E2,2.810051E1,2.850837E2,5.293182E0],"tree_param":{"num_deleted":"0","num_feature":"15","num_nodes":"99","size_leaf_vector":"1"}},{"base_weights":[-1.09338005E-8,-4.462717E-1,4.3559632E-1,-5.163848E-1,-1.0945418E-1,4.954152E-1,1.0313431E-1,-3.037711E-1,-5.391055E-1,-3.3803722E-1,3.2105766E-2,5.3527224E-1,3.4905425E-1,-2.2006711E-1,1.8858115E-1,-4.7525963E-1,-1.1828955E-1,-5.4876703E-1,-2.839031E-1,-1.4961801E-1,-4.9038595E-1,-6.057045E-2,6.8354845E-2,5.553594E-2,4.4050002E-1,2.4078807E-1,4.3160647E-1,-4.9278247E-1,6.800413E-2,1.0611733E-1,3.464288E-1,-5.0728774E-1,2.7752182E-2,-3.3245543E-1,7.014113E-2,-5.767153E-2,-4.9142623E-1,-2.8622406E-2,-4.2596847E-1,-3.8666573E-1,2.3809871E-1,-5.947418E-2,-3.1274337E-1,1.0529398E-1,-5.245976E-1,-5.7925373E-2,4.4759482E-1,2.5830132E-1,-4.9701545E-2,4.6429163E-1,2.4232905E-1,-6.0239118E-2,3.181245E-2,-5.615864E-2,1.4807908E-1,5.1851988E-2,4.459478E-1,3.7885556E-1,-5.4621812E-2,-5.4767277E-2,-8.095434E-3,-4.7113817E-2,1.1406559E-2,-2.0419622E-2,3.0423705E-2,-5.2818812E-2,-2.5749797E-2,1.2317784E-2,-5.3789925E-2,-5.0834864E-2,1.672235E-2,-4.9892887E-2,3.906179E-2,5.0510146E-2,-1.5634032E-2,-1.2443524E-2,-5.8617957E-2,2.298133E-3,2.8803486E-2,3.262381E-2,-6.0776275E-2,-5.1299464E-2,4.5196824E-2,1.7585212E-2,3.9940543E-2,4.6856735E-2,-3.6950007E-2,-4.914951E-2,4.554132E-2,2.2978602E-2,-4.17601E-2,-4.8907395E-2,1.2289069E-2,-5.0190337E-2,5.036934E-2,2.0571863E-2,4.763446E-2],"categories":[],"categories_nodes":[],"categories_segments":[],"categories_sizes":[],"default_left":[1,1,0,0,1,0,0,1,1,0,0,0,0,0,0,0,0,0,0,1,0,0,0,0,0,0,0,0,0,0,0,0,0,0,0,0,1,0,0,0,0,0,0,0,0,0,0,1,0,0,0,0,0,0,0,0,0,0,0,0,0,0,0,0,0,0,0,0,0,0,0,0,0,0,0,0,0,0,0,0,0,0,0,0,0,0,0,0,0,0,0,0,0,0,0,0,0],"id":15,"left_children":[1,3,5,7,9,11,13,15,17,19,21,23,25,27,29,31,33,35,37,39,41,-1,43,-1,45,47,49,51,53,55,57,59,-1,61,63,-1,65,67,69,71,73,-1,75,77,79,-1,81,83,-1,85,87,-1,-1,-1,89,91,93,95,-1,-1,-1,-1,-1,-1,-1,-1,-1,-1,-1,-1,-1,-1,-1,-1,-1,-1,-1,-1,-1,-1,-1,-1,-1,-1,-1,-1,-1,-1,-1,-1,-1,-1,-1,-1,-1,-1,-1],"loss_changes":[1.0571836E3,6.338025E1,5.468109E1,1.0575684E1,1.5028426E1,1.3417908E1,1.1666099E1,6.8438187E0,4.793335E0,5.024189E0,6.6889277E0,3.241272E0,4.383091E0,6.9843245E0,4.3036995E0,2.8503895E0,4.2825775E0,2.81427E0,2.7183356E0,7.521063E0,1.6261005E0,0E0,6.033893E0,0E0,2.611126E0,2.9640226E0,1.6418915E0,4.24207E0,2.2966268E0,4.0425434E0,3.506277E0,1.8177624E0,0E0,3.1235194E0,3.7208695E0,0E0,5.3691406E0,2.2302024E0,2.4452724E0,4.605332E0,3.3740923E0,0E0,1.8982286E0,3.870942E0,1.3427787E0,0E0,1.5904312E0,2.4313335E0,0E0,1.0313568E0,7.0806274E0,0E0,0E0,0E0,1.9328668E0,7.408921E0,1.9072046E0,1.7684631E0,0E0,0E0,0E0,0E0,0E0,0E0,0E0,0E0,0E0,0E0,0E0,0E0,0E0,0E0,0E0,0E0,0E0,0E0,0E0,0E0,0E0,0E0,0E0,0E0,0E0,0E0,0E0,0E0,0E0,0E0,0E0,0E0,0E0,0E0,0E0,0E0,0E0,0E0,0E0],"parents":[2147483647,0,0,1,1,2,2,3,3,4,4,5,5,6,6,7,7,8,8,9,9,10,10,11,11,12,12,13,13,14,14,15,15,16,16,17,17,18,18,19,19,20,20,22,22,24,24,25,25,26,26,27,27,28,28,29,29,30,30,31,31,33,33,34,34,36,36,37,37,38,38,39,39,40,40,42,42,43,43,44,44,46,46,47,47,49,49,50,50,54,54,55,55,56,56,57,57],"right_children":[2,4,6,8,10,12,14,16,18,20,22,24,26,28,30,32,34,36,38,40,42,-1,44,-1,46,48,50,52,54,56,58,60,-1,62,64,-1,66,68,70,72,74,-1,76,78,80,-1,82,84,-1,86,88,-1,-1,-1,90,92,94,96,-1,-1,-1,-1,-1,-1,-1,-1,-1,-1,-1,-1,-1,-1,-1,-1,-1,-1,-1,-1,-1,-1,-1,-1,-1,-1,-1,-1,-1,-1,-1,-1,-1,-1,-1,-1,-1,-1,-1],"split_conditions":[9.998408E-1,5.193262E-1,4E0,2.5E1,9.997048E-1,2E0,7.380934E-1,9.9958533E-1,9.997987E-1,1.8963907E1,-1.4423045E0,2E0,9.1086817E-1,-1.3692514E0,8.914082E-1,5.8624302E1,1.1E1,-1.4536843E0,-1.1624453E0,9.735858E-1,3.666404E1,-6.057045E-2,3.9E1,5.553594E-2,-8.697848E0,9.564948E-1,7.030709E1,8.7E1,-9.0361395E0,5.250011E1,1.7E1,8.4E1,2.7752182E-2,2.0917554E0,2.6105762E1,-5.767153E-2,9.613847E-1,-7.2046304E-3,1.71E2,-1.1985794E0,9.7703105E-1,-5.947418E-2,9.680662E-1,8.7925404E-1,-6.2291975E0,-5.7925373E-2,-1.1624453E0,9.8928326E-1,-4.9701545E-2,3.8E1,7.482966E-1,-6.0239118E-2,3.181245E-2,-5.615864E-2,1.9439543E1,7.875123E-1,9.6736145E-1,9.998967E-1,-5.4621812E-2,-5.4767277E-2,-8.095434E-3,-4.7113817E-2,1.1406559E-2,-2.0419622E-2,3.0423705E-2,-5.2818812E-2,-2.5749797E-2,1.2317784E-2,-5.3789925E-2,-5.0834864E-2,1.672235E-2,-4.9892887E-2,3.906179E-2,5.0510146E-2,-1.5634032E-2,-1.2443524E-2,-5.8617957E-2,2.298133E-3,2.8803486E-2,3.262381E-2,-6.0776275E-2,-5.1299464E-2,4.5196824E-2,1.7585212E-2,3.9940543E-2,4.6856735E-2,-3.6950007E-2,-4.914951E-2,4.554132E-2,2.2978602E-2,-4.17601E-2,-4.8907395E-2,1.2289069E-2,-5.0190337E-2,5.036934E-2,2.0571863E-2,4.763446E-2],"split_indices":[12,14,3,6,12,3,13,12,12,1,4,6,14,4,9,1,0,4,9,10,1,0,0,0,7,9,1,0,7,1,6,3,0,13,1,0,10,13,6,4,10,0,10,9,7,0,9,10,0,0,11,0,0,0,1,11,10,12,0,0,0,0,0,0,0,0,0,0,0,0,0,0,0,0,0,0,0,0,0,0,0,0,0,0,0,0,0,0,0,0,0,0,0,0,0,0,0],"split_type":[0,0,0,0,0,0,0,0,0,0,0,0,0,0,0,0,0,0,0,0,0,0,0,0,0,0,0,0,0,0,0,0,0,0,0,0,0,0,0,0,0,0,0,0,0,0,0,0,0,0,0,0,0,0,0,0,0,0,0,0,0,0,0,0,0,0,0,0,0,0,0,0,0,0,0,0,0,0,0,0,0,0,0,0,0,0,0,0,0,0,0,0,0,0,0,0,0],"sum_hessian":[5.436346E3,2.6852566E3,2.7510896E3,2.2221523E3,4.6310406E2,2.331161E3,4.1992883E2,2.1592805E2,2.0062244E3,1.7658177E2,2.865223E2,1.8301238E3,5.010371E2,8.7476135E1,3.324527E2,1.1138439E2,1.0454367E2,1.9319338E3,7.429057E1,7.983138E1,9.67504E1,1.4563575E1,2.719587E2,1.5060541E3,3.240697E2,2.184541E2,2.82583E2,4.4570694E1,4.290544E1,2.1946869E2,1.1298401E2,1.07151596E2,4.232794E0,4.8572723E1,5.597095E1,1.2927716E3,6.391622E2,2.6991095E1,4.7299477E1,4.9543495E1,3.0287888E1,5.9468018E1,3.728238E1,2.5678427E2,1.5174459E1,1.6818948E0,3.2238782E2,2.1402371E2,4.4303823E0,2.3973216E2,4.285085E1,3.949004E1,5.0806518E0,4.1627216E0,3.8742718E1,1.9024265E2,2.9226042E1,1.0957897E2,3.4050412E0,9.761981E1,9.53178E0,3.7019794E1,1.1552927E1,2.582929E1,3.0141659E1,5.512718E2,8.789042E1,2.1377293E1,5.613802E0,4.16573E1,5.6421766E0,4.360389E1,5.9396024E0,1.7894337E1,1.2393549E1,2.2939585E1,1.4342795E1,1.778158E2,7.8968475E1,1.0909132E0,1.4083546E1,9.340359E-1,3.2145377E2,1.3650694E2,7.751677E1,2.3894487E2,7.872898E-1,9.348767E0,3.350208E1,3.437183E1,4.370886E0,2.1400839E1,1.6884181E2,1.2365966E0,2.7989445E1,4.05946E1,6.898437E1],"tree_param":{"num_deleted":"0","num_feature":"15","num_nodes":"97","size_leaf_vector":"1"}},{"base_weights":[-2.2999844E-8,-4.391321E-1,4.2695156E-1,-5.08688E-1,-1.1214409E-1,5.003681E-1,1.5815397E-1,-2.9620907E-1,-5.317895E-1,-3.3460662E-1,2.2564944E-2,5.3772444E-1,3.8955083E-1,-3.9442465E-2,2.7779305E-1,-4.6426538E-1,-1.1761496E-1,-5.416556E-1,-2.754189E-1,-1.5274537E-1,-4.8235565E-1,5.983736E-2,-5.238541E-1,5.48065E-2,4.0339643E-1,-5.78227E-2,3.9417768E-1,-2.6805744E-1,9.670149E-2,2.0612702E-1,3.7247625E-1,-5.3430844E-2,-1.0524619E-1,-3.2672185E-1,6.304115E-2,-5.7005405E-2,-4.8397905E-1,-3.287541E-2,-4.1472945E-1,-3.8080168E-1,2.1864527E-1,-5.8520984E-2,-3.1024253E-1,-5.8456015E-2,8.996255E-2,2.36468E-2,-5.9759915E-2,4.1798592E-1,-5.229498E-2,3.455999E-1,4.7581393E-2,-3.8612056E-1,4.5518818E-1,1.4991681E-1,-5.5394243E-2,2.3316011E-1,-7.956214E-2,-7.4625716E-2,4.0694457E-1,5.6355815E-2,-5.425318E-2,-4.641502E-2,1.0434336E-2,1.6090227E-2,-5.528905E-2,-5.2849293E-2,-2.977254E-2,-5.1956158E-2,1.1999206E-2,-4.9628258E-2,1.52849285E-2,-5.746435E-2,-4.915207E-3,-1.5260163E-2,4.062385E-2,-1.3196722E-2,-5.7541467E-2,4.803282E-3,4.34882E-2,3.318652E-2,5.913138E-2,1.3605634E-2,4.0596016E-2,2.4735237E-2,-4.493685E-2,-3.912201E-2,6.2310256E-2,2.3836413E-2,-1.8053865E-2,1.423528E-2,4.9205925E-2,-5.9605975E-2,4.2445913E-2],"categories":[],"categories_nodes":[],"categories_segments":[],"categories_sizes":[],"default_left":[1,1,0,0,1,0,0,1,1,0,0,0,0,0,0,1,0,0,0,0,0,0,0,0,0,0,1,0,0,0,0,0,0,0,0,0,0,0,0,1,0,0,